#ifndef MODEL_WEIGHTS_CNNMANUAL_H
#define MODEL_WEIGHTS_CNNMANUAL_H

// Layer 0
const float dense_0_weights[384] = {
    0.06785330, -0.00581721, 0.07461733, -0.27784076, 0.24006818, -0.01303023, 0.16316070, 0.23677845,
    0.19586839, -0.18753546, 0.07568576, -0.05399451, -0.23973060, -0.16250475, 0.06143983, 0.16901827,
    -0.09958617, 0.23888159, -0.24319313, 0.21573529, -0.09174944, 0.20470224, -0.31811711, -0.21200469,
    -0.12942076, -0.15186048, -0.05207332, -0.13543165, 0.23491840, -0.19049008, -0.25231710, -0.12640138,
    0.17602503, 0.01449455, 0.02084799, -0.03852452, -0.10909256, -0.41629791, -0.00432037, -0.23383820,
    0.24934359, 0.01541966, -0.12156268, -0.01762347, -0.02339137, 0.11490447, -0.10688739, 0.15302138,
    -0.16912296, -0.05984693, 0.26687998, -0.10444864, 0.11552107, 0.07690603, 0.00463862, 0.06041227,
    0.09174734, 0.01102590, -0.01338121, -0.22700906, -0.22401413, -0.24663001, -0.27294892, 0.10559460,
    -0.02558377, -0.16206421, -0.06542332, 0.03507113, -0.12188587, -0.08268900, 0.21910705, 0.11843022,
    0.16784544, 0.09385370, 0.03795470, 0.33851239, 0.03242871, -0.17750643, -0.21364903, 0.17895371,
    0.00242269, 0.48194689, -0.05422679, 0.28192094, 0.06735516, 0.00866950, 0.05053878, 0.01636433,
    -0.16287500, 0.16655847, -0.19772489, 0.13884994, 0.30595839, 0.15887831, 0.21523218, 0.03834609,
    0.30137962, -0.16057238, -0.03150617, -1.07807148, -0.10450733, -0.03598130, 0.12440287, 0.02254036,
    -0.05555907, 0.04801315, 0.00363483, -0.01942508, -0.02027979, 0.18347946, -0.13868867, -0.31541166,
    -0.07152531, 0.25667101, -0.91454017, -0.20006266, 0.22131532, 0.11282203, -0.39537081, 0.04630810,
    -0.47921008, 0.17153095, -0.06978066, -0.43221259, 0.13795994, -0.38874829, 0.24730237, -0.30388439,
    -0.24234827, 0.08044311, -0.26178101, 0.17298587, 0.07676188, 0.10538420, -0.12940007, 0.15077525,
    -0.18015814, -0.00445210, -0.02394897, -0.24084786, 0.27050894, 0.23417400, 0.14677581, -0.08512117,
    0.02659264, 0.20609206, -0.22431906, 0.12524888, 0.02028385, 0.15542284, -0.12534733, 0.08355145,
    0.02226893, 0.24090034, 0.17368193, -0.10410342, 0.14445676, -0.22602630, -0.02771599, 0.16550383,
    0.26425555, 0.09157664, -0.06201455, -0.09783114, -0.14266218, -0.22097315, -0.14299756, 0.16644529,
    0.08144817, -0.05729027, -0.12033501, 0.26855490, -0.08297270, 0.20554793, 0.03947335, 0.29176691,
    -0.10625647, 0.27898118, 0.04870158, 0.11591791, 0.07051458, -0.07273526, -0.01181881, 0.22102822,
    -0.00633498, 0.09662247, -0.13715135, 0.27941567, -0.08775532, 0.22704154, 0.18204363, 0.20362949,
    -0.21655929, -0.03217550, -0.01278257, -0.11210243, 0.20355579, 0.25127262, -0.15958707, 0.19384877,
    0.35188881, -0.03431854, -0.00990595, 0.12932882, 0.14442952, -0.20802529, 0.14268234, -0.00458777,
    -0.01754483, 0.00025487, 0.31149530, -0.06223659, 0.31542671, -0.05559718, 0.06019606, 0.01073398,
    -0.22785538, 0.03220901, -0.14542161, 0.14758295, 0.18689668, -0.27676809, -0.06191367, -0.02176783,
    0.16400121, 0.07588891, 0.26001281, -1.32203507, -0.18792118, -0.24387519, -0.02294334, -0.13475728,
    0.03419819, -0.02260935, 0.27627161, 0.22485797, -0.12561978, 0.28147247, 0.01199231, 0.01495852,
    0.16404237, -0.10195397, -0.65028870, 0.20717490, -0.04801254, -0.31545940, -0.57733089, -0.30665711,
    -0.16252972, -0.19313429, -0.05895503, -0.39898106, 0.01556045, -0.00471747, -0.10328081, 0.09042937,
    -0.23753397, 0.13440976, -0.11997848, 0.21393120, 0.19904613, 0.21962775, 0.11114232, -0.07945769,
    0.10876408, -0.00200418, -0.02285839, 0.25966692, -0.03934117, -0.07771928, -0.10424167, 0.20742270,
    -0.23980066, 0.11678606, -0.25381336, 0.25190243, 0.17167319, -0.27016807, -0.26902679, 0.12177499,
    -0.16907524, 0.27083069, 0.21483296, -0.27591807, -0.25843608, 0.11950915, -0.32073417, -0.01632409,
    -0.06282992, -0.26669291, 0.06095638, 0.27431992, 0.25282669, -0.27908421, -0.20133935, -0.19322930,
    0.28163087, -0.07927814, 0.25201932, 0.10154829, -0.08506849, -0.01275892, -0.12311044, 0.02966369,
    -0.19063869, 0.07181630, -0.20559409, 0.07631040, -0.19039953, 0.25056034, 0.15313868, -0.02863527,
    0.04037047, 0.18796912, -0.19183946, 0.19582982, 0.16030344, 0.11756957, 0.04796327, 0.14476170,
    -0.26322886, 0.05497323, 0.08213328, 0.21814950, 0.07874341, 0.13918495, 0.03313877, 0.10057855,
    0.16202003, 0.04616934, 0.03964464, -0.08763430, -0.01074836, 0.20867717, -0.22788063, -0.01919949,
    -0.00460849, 0.34797403, -0.08125775, 0.24679129, -0.04075422, 0.00344076, 0.04193232, -0.02011114,
    0.20362408, 0.31343362, 0.25884670, -0.01785818, 0.23702708, -0.31911922, 0.27144730, 0.24136487,
    0.28647566, 0.24387754, -0.19526421, -1.12648857, 0.09037896, 0.12089732, -0.16966572, 0.13554129,
    -0.32023773, 0.09176395, -0.19876252, -0.00329418, 0.16071641, 0.06323905, -0.20854339, -0.30755720,
    -0.07467087, 0.11065982, -0.09405160, 0.04033946, -0.04046732, -0.46720567, -0.86984015, 0.11650785,
    0.01935356, -0.18215583, -0.21938550, -0.37954378, 0.09217487, -0.45797235, -0.23314688, -0.13077031
};

const float dense_0_bias[64] = {
    0.00000000, -0.47819760, 0.08022100, 0.64079756, -0.30644524, 0.46182710, 0.66594595, 0.53845119,
    0.48215207, 0.30466434, 0.67256469, -0.05769508, 0.71563441, 0.01665333, -0.16245370, 0.21008375,
    -0.01349573, -0.31589305, -0.24096993, -0.22375566, -0.32312933, -0.24326752, -0.28534395, 0.79010803,
    -0.04166744, 0.38814163, -0.44081199, -0.29671037, -0.34352556, -0.05826984, -0.32428834, -0.13955711,
    -0.62418491, 0.32891640, 0.58981669, -0.39719498, 0.75900775, -0.23637100, -0.10446484, 0.00836149,
    -0.47811610, 0.44781950, -0.40059027, 0.56627965, 0.13644607, -0.47541535, 0.00000000, -0.53113550,
    0.18697152, -0.36987105, -0.23716876, 0.50011128, 0.69824231, 0.45237607, -0.15442830, 0.41237727,
    0.23201101, -0.46691075, 0.00000000, -0.22590943, 0.53143251, 0.09594197, 0.14354572, 0.05907019
};

// Layer 1
const float dense_1_weights[4096] = {
    0.13300543, -0.15906937, -0.11661289, -0.18064560, 0.04964863, -0.10316053, -0.07950065, -0.03593440,
    0.18967365, 0.05525969, 0.09639253, -0.12975544, -0.21314594, 0.14550547, 0.15294249, 0.07052614,
    -0.15222839, 0.04800843, 0.17457415, -0.14115816, 0.12372740, 0.19988503, -0.20113923, 0.16697629,
    0.00935519, 0.08803098, -0.10715095, -0.07593593, -0.01140943, -0.06001426, -0.03397855, 0.21328567,
    0.01821272, 0.09508012, 0.11825718, 0.19850005, 0.04426987, 0.09936427, 0.07721360, 0.14346771,
    -0.11691791, 0.10859431, -0.11400091, 0.06932919, 0.02096795, 0.04262005, -0.06211573, 0.12774812,
    0.14554222, 0.17111568, 0.10137524, 0.05736394, 0.15517481, -0.20673758, -0.15171881, -0.02924503,
    0.21330141, -0.20764406, -0.18749309, 0.17343096, -0.14277853, 0.10209812, 0.20181228, -0.04163538,
    0.02497482, 0.19412719, -0.01164312, 0.01117549, -0.06200710, -0.12058592, -0.02753164, -0.14261413,
    -0.13256030, -0.16099311, -0.19465344, -0.16891927, -0.13039006, -0.13301715, -0.26772985, -0.18312536,
    -0.14708804, -0.31029081, 0.18607680, 0.09125213, 0.15933120, -0.15456086, -0.02929190, -0.17386164,
    -0.12345859, -0.14240563, -0.21000203, 0.09885341, -0.08688654, -0.00408525, -0.07495259, -0.20071483,
    0.21531083, -0.25774270, 0.03284041, 0.07624228, -0.19671384, 0.00488367, -0.19844258, -0.16480467,
    -0.18554813, -0.25675985, -0.28244665, -0.26437634, 0.15775251, 0.02199463, 0.01760919, -0.00834991,
    0.19130589, -0.03474587, -0.10995059, -0.08837391, -0.11034292, 0.12335371, 0.15429461, 0.08581473,
    0.04216861, 0.17134036, 0.05302325, 0.01756286, 0.14154854, 0.07616104, -0.04771114, -0.18211855,
    0.14383627, 0.07350636, 0.08665608, -0.01083416, -0.05847650, -0.01535392, -0.06731082, -0.17101564,
    0.01484624, -0.20990983, -0.20897432, 0.13445504, 0.05141796, -0.11230272, 0.12099613, 0.09599059,
    0.35425922, 0.14913110, 0.23170710, -0.21059354, -0.15133631, -0.03916493, -0.11573552, -0.09892286,
    0.05123375, -0.16086537, -0.22570381, -0.03306139, -0.02851138, -0.01520653, 0.00416254, 0.14727770,
    0.23527329, -0.01926906, 0.09475559, -0.00495642, 0.18812557, 0.08554740, -0.24709727, -0.23043871,
    0.07245142, 0.03771828, -0.04383461, -0.11649794, 0.02336510, 0.04411782, 0.20368968, -0.11233103,
    0.19250292, -0.20871490, 0.06891863, -0.09497601, -0.16350335, 0.19249438, -0.17209457, 0.17554718,
    -0.00201822, -0.19783366, -0.07622641, 0.15098788, 0.02755870, -0.17735076, 0.11055870, -0.09947857,
    -0.14150415, 0.22875875, -0.12409496, 0.02851269, 0.18695351, 0.20174876, -0.15305282, -0.12392250,
    -0.09656634, 0.01423184, 0.48244452, -0.03370112, 0.10683057, -0.14109522, 0.09347071, 0.19838606,
    -0.13610581, -0.12309676, 0.02528764, -0.16163005, 0.10551340, 0.02482162, 0.01896640, -0.03183942,
    0.04148738, -0.18955386, 0.18027431, -0.17151357, -0.17241499, -0.20148420, 0.08784857, 0.02831521,
    0.26672247, 0.00514343, -0.03064348, -0.14354858, -0.15404417, 0.06265344, 0.16542320, 0.08126007,
    -0.07321391, 0.09133384, 0.20227392, 0.21202572, 0.11171003, 0.08508559, -0.02539532, 0.00260341,
    -0.17243485, 0.21004416, 0.19010922, -0.16161764, 0.19371641, 0.17906424, 0.04489168, -0.17026056,
    -0.02142956, 0.08028345, 0.12407271, 0.12154588, 0.07776787, -0.10723700, 0.05318983, -0.18589738,
    0.15089212, 0.19617884, -0.04714271, -0.08485094, 0.09177150, 0.19642819, -0.09930745, 0.23621160,
    0.01265727, -0.11209448, -0.05703181, -0.16099991, -0.22879544, 0.15381183, -0.20338260, -0.13645650,
    -0.08736448, -0.18683127, 0.12742671, -0.00391822, 0.18665908, 0.01134717, 0.06467061, 0.07105957,
    0.08781007, -0.10692628, -0.11633871, -0.11192703, 0.01811459, 0.00471921, 0.06742623, -0.02228684,
    -0.07753770, -0.21032940, -0.05730906, 0.05585478, -0.15639012, 0.06256194, 0.15034752, -0.05994003,
    0.17918579, -0.20169151, -0.08368848, -0.07872248, 0.15980658, -0.10830816, -0.09583341, 0.12444784,
    0.07585012, 0.05001031, 0.09433605, -0.12968732, -0.10557232, -0.00350135, 0.09071421, -0.19497490,
    0.11316670, 0.13599093, -0.04475400, 0.01371248, -0.08209450, -0.20618676, 0.00017394, 0.05289780,
    -0.05372003, 0.06649878, -0.11141276, -0.10084985, 0.25581819, -0.05636141, 0.16094810, -0.07248519,
    -0.09796476, 0.06665325, -0.02461620, 0.18080287, -0.21585011, -0.03957977, -0.01206189, -0.05100886,
    0.18882757, 0.13585629, 0.12351121, -0.05298915, 0.13801982, -0.21026705, 0.06639458, -0.04269752,
    0.18336302, -0.22834705, -0.06030591, -0.20452017, 0.04463486, -0.14080001, -0.00917394, 0.13935940,
    -0.14267923, -0.01273677, 0.19942899, -0.05282404, 0.20401332, 0.08663061, 0.24259339, -0.04613759,
    0.08868274, -0.00955133, -0.07090921, 0.00774819, -0.12959668, 0.01972377, 0.15825924, -0.13527998,
    -0.19885480, -0.08223584, 0.24004123, 0.03434477, -0.22441584, -0.09580556, -0.13455625, -0.04785773,
    0.20279597, -0.06917446, -0.09504538, 0.11329812, -0.04057109, -0.15649745, -0.15853268, 0.12063379,
    -0.16520053, -0.16172427, -0.09400600, -0.11810270, -0.04547717, -0.17258878, 0.13065624, -0.16483442,
    0.16633318, 0.26334792, -0.00001295, -0.09333940, -0.05141081, 0.02547867, 0.09786015, 0.17175640,
    -0.01868924, 0.16702549, -0.20143536, -0.16768943, -0.29420847, -0.01223311, -0.21163641, 0.04654013,
    0.02278516, 0.14900661, -0.04864677, -0.10974432, 0.04001121, 0.13359791, 0.03668877, -0.10217600,
    0.15976009, -0.04040183, 0.18483949, -0.20063181, -0.02711214, 0.14590000, 0.04742885, 0.01067156,
    0.17323732, -0.00711860, 0.16420358, 0.05937765, -0.17345029, -0.00715982, -0.11388006, -0.00077564,
    0.02171660, 0.14634030, 0.15235814, -0.00820436, 0.01800914, 0.07115732, 0.05330451, -0.00614427,
    0.11423333, -0.06327670, 0.20876049, -0.10911265, 0.12141284, -0.08554845, 0.17893317, -0.06371488,
    0.15428504, 0.02068920, 0.20739998, -0.14731349, -0.00765652, 0.11555005, -0.10958891, -0.18443917,
    -0.15896492, -0.01638122, 0.08490672, 0.19720121, 0.12519304, 0.02045244, 0.07774834, 0.02797503,
    0.05974188, 0.15700530, -0.22479385, 0.16915050, 0.10650875, -0.00961783, 0.04988057, -0.11716715,
    -0.15690543, -0.21193293, 0.00245079, 0.07126281, 0.24221487, 0.08982545, 0.08864745, 0.09012491,
    0.06395039, -0.05696028, 0.06663480, -0.07307085, 0.09997328, 0.19469881, 0.11261737, 0.21319555,
    0.15040503, -0.09164807, -0.03440655, 0.17190968, 0.09484541, -0.13666745, -0.05154812, 0.08014707,
    0.14827198, -0.03967178, 0.24001710, -0.13351376, 0.17288198, 0.11117037, 0.05011790, 0.14537795,
    -0.09322347, -0.12267402, 0.18624508, -0.00232815, -0.18184476, 0.08329014, 0.13220565, -0.17426257,
    0.15909874, -0.13693249, -0.13519484, 0.19586633, 0.18722433, -0.10445839, 0.15474609, -0.15099162,
    -0.07530115, 0.09028362, 0.01344903, 0.22617400, -0.20633428, -0.18842538, 0.09597194, 0.25265533,
    0.07408935, 0.19146095, -0.07725398, 0.17201130, 0.02577132, 0.03096528, -0.18848078, 0.21376103,
    -0.11523044, -0.07780577, -0.12793076, 0.00520397, -0.00621457, 0.03469627, 0.13349506, -0.11896206,
    -0.12528244, -0.04322120, -0.12682737, -0.10487775, -0.04497126, 0.03537209, 0.06970611, 0.03650044,
    -0.04820503, -0.03605174, 0.04821941, 0.16823769, 0.05464929, 0.07872321, 0.19305915, -0.08076030,
    -0.13691850, 0.17624734, 0.20016396, -0.05901155, -0.08469578, -0.12002915, -0.07187257, -0.11659907,
    0.20391475, -0.05993436, -0.04144546, 0.01570265, 0.16708036, -0.01993407, -0.09457745, 0.02467071,
    0.05937903, 0.19259611, -0.07756650, 0.10727619, -0.30756348, -0.10692511, -0.14131235, -0.17084540,
    -0.05212517, 0.22340415, -0.20050168, 0.18869026, -0.08606545, 0.22141662, 0.07443976, 0.17315862,
    -0.11215672, -0.16776200, 0.02638168, -0.01779159, -0.02539027, -0.14963087, -0.06314202, -0.07098792,
    0.07690178, -0.04385656, -0.14101636, -0.08063364, 0.07688124, 0.00399004, 0.09956383, 0.12901558,
    -0.07342326, 0.33488902, -0.07899325, 0.03538255, 0.15358645, -0.13563347, -0.12513819, -0.17074978,
    0.16773932, -0.22129212, -0.12827772, 0.07302327, -0.13598341, 0.09042786, -0.09060244, 0.20177294,
    -0.06190925, -0.15518968, -0.17200415, -0.22485588, -0.19815166, 0.13266528, 0.04403925, 0.04006350,
    -0.06509902, -0.08856270, -0.13494848, -0.04768828, 0.12511860, -0.19805421, 0.02558337, -0.11016767,
    0.15420172, 0.14763997, -0.02308938, 0.07125567, -0.06096297, -0.17314570, 0.26462355, 0.03388909,
    0.09877793, 0.11040093, 0.32748374, -0.06798690, 0.13936543, 0.01946565, 0.10678186, 0.08927272,
    -0.10507389, 0.08809964, 0.20753512, 0.00235995, -0.02997184, -0.09774641, -0.17582692, 0.04287022,
    0.10480209, -0.08124612, -0.07148646, -0.07635276, 0.22910473, 0.19638708, 0.16134128, -0.15967631,
    0.18375368, 0.15010530, -0.18089461, 0.01614389, -0.09543580, -0.17159945, 0.30211818, 0.03270693,
    0.18559965, 0.09716554, 0.00997890, 0.28751791, 0.07628794, 0.06134033, 0.14094244, -0.04336317,
    -0.03075283, -0.16520239, 0.24574393, -0.00635721, -0.12425149, 0.10925003, -0.01185123, 0.16081819,
    -0.19179337, -0.10020893, 0.08691289, -0.16974890, -0.05424625, 0.04447444, 0.26624882, 0.18639894,
    0.20955342, 0.12027935, -0.00692723, -0.07707155, -0.04474955, -0.04734220, 0.18004252, 0.14486076,
    0.11870120, 0.13055937, -0.16136350, -0.16141252, -0.04265925, 0.17898855, 0.23454106, 0.05086631,
    -0.12557809, 0.07981059, -0.21532999, -0.21075122, -0.15262930, -0.14339256, -0.20989347, 0.19055575,
    0.07981726, -0.01567969, -0.02441408, 0.18483886, -0.21101306, -0.20851496, -0.08996164, -0.12575202,
    -0.11542774, 0.10709251, 0.14012571, -0.20839554, -0.07416868, -0.19618374, -0.09458886, -0.21835662,
    -0.17926146, 0.13472168, -0.11506633, 0.14225157, 0.03880822, 0.09572049, 0.04831741, 0.07160740,
    -0.18567468, -0.03923498, -0.01256541, -0.04777081, 0.02931672, -0.14579147, 0.23450139, 0.25506520,
    -0.10174197, 0.12784909, 0.07040612, 0.10568618, -0.12770671, 0.21213673, -0.00210382, -0.11098982,
    0.14384477, 0.04235558, 0.16414982, 0.11743206, -0.15251029, -0.12385187, 0.31522396, -0.37598383,
    0.03740419, 0.33985898, 0.23834696, 0.09315803, 0.06735908, -0.26995605, 0.14252983, 0.17200148,
    0.05530636, 0.12166117, 0.16753238, -0.09039405, 0.19863926, 0.08463102, -0.06627969, -0.01770524,
    0.01855732, 0.05426558, 0.24753298, -0.02189756, 0.23647076, -0.17637868, 0.23164225, -0.09634796,
    -0.03944228, 0.25504676, 0.08964119, 0.07878284, 0.03916207, -0.07441306, 0.33180410, 0.18555325,
    0.09567790, 0.03426253, 0.30639336, 0.17142510, 0.07283300, 0.38343906, 0.00942266, -0.01642227,
    0.09599280, -0.09562915, 0.37139952, -0.41950434, -0.01230119, 0.24589074, -0.22848758, 0.04896563,
    0.13759007, 0.13204010, -0.00666236, -0.20685597, 0.01824149, -0.10270484, -0.20794879, -0.05599428,
    0.17044114, 0.17543700, -0.23089285, -0.12422947, 0.17974281, 0.19570816, 0.11577533, 0.30851436,
    -0.06636605, 0.04600212, -0.24566643, -0.14035743, -0.01855214, 0.27516389, 0.11891949, 0.02097381,
    0.72949123, 0.01562830, 0.02763789, 0.04265295, -0.16762444, -0.02409524, 0.01012324, -0.24533138,
    0.02991495, 0.12167348, -0.07307162, -0.06589437, -0.05355400, -0.22589871, -0.11674457, 0.07067030,
    0.13801162, 0.10627483, 0.02238817, -0.00544371, -0.18474701, 0.19504558, -0.19904366, 0.15189104,
    -0.16742206, 0.05743544, -0.00130948, 0.00495108, 0.08445431, 0.03997748, 0.07621585, -0.05239038,
    0.11426098, -0.08998464, -0.00662896, -0.18945424, 0.18617530, -0.20621674, 0.27385780, 0.07059446,
    -0.08625627, 0.45231438, 0.24242823, 0.13150808, -0.06943777, -0.07960945, -0.06170787, 0.20386477,
    -0.09973270, -0.14576840, 0.07377618, 0.20177843, 0.17758425, -0.04268289, 0.22896546, 0.07746886,
    -0.09052156, 0.03498900, -0.15323605, 0.11780369, -0.14958204, -0.19256449, -0.06152752, 0.01707283,
    0.28140152, 0.00875779, 0.05250533, -0.02158195, -0.05371428, -0.09569034, -0.15969290, -0.12569709,
    0.18731429, -0.18262455, -0.09862804, 0.10346624, -0.11372927, 0.16686293, -0.09264814, 0.09750944,
    0.06792685, -0.32639632, 0.09653067, -0.09924744, 0.17611404, -0.08548282, -0.01023349, -0.02443413,
    0.14779863, 0.07429264, 0.11837678, -0.10348660, 0.19258140, -0.14344747, 0.11020493, -0.10257961,
    0.15767553, 0.04853262, 0.10201739, -0.06501774, -0.12629947, 0.16951185, -0.06799564, -0.09956907,
    -0.08566350, 0.21680525, -0.01141376, -0.00454495, -0.20701168, 0.17904805, 0.13052577, 0.00050452,
    -0.03933371, -0.14266573, 0.12390722, -0.00261352, 0.07055727, 0.06121873, 0.02296413, 0.19204684,
    -0.10893873, 0.00701048, -0.18169081, -0.11685070, 0.04284072, 0.18908305, 0.13807333, -0.05804147,
    -0.12030491, 0.11400594, 0.19021146, 0.03366389, -0.15148227, 0.18601836, 0.04512643, -0.17269953,
    0.14689584, 0.19033290, 0.20723356, 0.11532827, -0.03042896, -0.18200520, 0.14053941, 0.19781794,
    0.03281030, 0.03561483, -0.14929393, -0.16370544, -0.02852773, 0.13793048, 0.13409847, 0.17041734,
    -0.21575888, 0.03274842, -0.24379764, 0.12464423, -0.03497773, 0.13629502, 0.17875160, -0.15628442,
    0.06477834, -0.08956110, 0.13787360, -0.13971548, -0.06627195, -0.22566293, -0.02833789, -0.11408798,
    0.09518673, 0.21232757, -0.01941553, -0.09173162, 0.02083224, 0.10377325, -0.12210825, -0.19545197,
    0.12594931, 0.09415502, 0.05513648, 0.21872237, 0.08525132, 0.10865282, 0.16212530, 0.11477540,
    0.11090582, 0.00774102, 0.02252355, 0.17499794, 0.04482178, -0.19131245, -0.01515770, -0.14149448,
    -0.09982542, 0.18761733, 0.11118205, 0.20126317, 0.06703953, 0.05661829, 0.03576829, 0.06528814,
    -0.01083584, 0.06141992, -0.09217375, 0.09277598, -0.17715698, -0.06009194, -0.01651397, 0.02450613,
    0.03922934, -0.13910836, -0.02885978, 0.00334327, -0.14869258, -0.07823056, 0.03213935, -0.14994882,
    0.15061508, -0.14192757, 0.07708767, -0.02186860, -0.16576999, -0.17857492, -0.02064599, 0.15592252,
    0.15958191, 0.09153403, 0.20545347, 0.18607831, 0.08110754, -0.19504200, -0.18577075, 0.18918388,
    -0.14600815, -0.10628628, 0.17350614, 0.15472515, 0.21114126, 0.06106131, -0.18206160, 0.06876485,
    -0.05648357, 0.12003691, 0.18941563, -0.10714356, -0.01086334, 0.18279476, -0.13253212, 0.02893591,
    0.06596428, 0.02853557, -0.20015205, 0.05055299, -0.19744433, -0.12507050, -0.00563781, 0.13618177,
    -0.13879283, -0.07284760, -0.14174941, -0.00897657, 0.03249793, -0.07232387, 0.08272107, 0.01991164,
    -0.18451436, 0.04815187, 0.02823207, 0.20980781, -0.19404551, 0.05993012, -0.09344013, 0.00732763,
    0.15222713, -0.17243399, 0.04889752, -0.19613378, -0.07401018, -0.15086360, -0.19288580, 0.22335757,
    0.12563141, 0.16134223, 0.18390292, 0.07684762, 0.20586224, -0.22387376, 0.14170763, -0.21152613,
    -0.09443096, -0.20395061, 0.04882084, -0.08187123, -0.20004170, 0.13010603, 0.18529356, 0.11233903,
    0.16551079, -0.12158426, 0.05265243, -0.00635076, 0.08861338, -0.03492318, 0.17526701, 0.14993933,
    0.11901163, 0.06629816, 0.12897126, 0.22412978, 0.03526593, -0.20011330, 0.12938605, -0.29077476,
    0.33081487, -0.01944504, 0.09457727, -0.13700522, 0.00522119, 0.13896884, -0.08339110, 0.01185249,
    -0.29781711, 0.18761913, 0.02326706, 0.08010170, 0.22197400, 0.19345261, -0.15449113, -0.06141190,
    -0.15205231, -0.09814264, -0.19099699, 0.06350470, -0.06832041, -0.03769064, -0.08304433, -0.04935578,
    -0.06830604, 0.02331751, 0.04204167, -0.11540877, 0.12491672, -0.21354289, -0.10459461, 0.17970012,
    0.01360697, 0.00843717, -0.13724595, -0.28587559, 0.23663063, -0.02198401, 0.14652449, -0.04418980,
    0.02727173, -0.00113846, -0.10410015, -0.06458777, -0.16730593, -0.13978413, -0.05045210, 0.10550606,
    -0.08023353, 0.19285206, 0.07443877, 0.13004872, -0.02808514, 0.04658137, -0.24742332, 0.06624164,
    -0.00632828, 0.16022763, 0.16105925, 0.04036320, -0.02721835, -0.17551142, -0.09618785, 0.02963152,
    -0.06457649, -0.09315078, -0.24707490, -0.12305429, -0.05954974, -0.21540612, -0.01834033, 0.09128569,
    0.17806430, 0.06084031, 0.17999707, 0.03837143, -0.20073241, -0.21196419, -0.16716583, 0.08402316,
    -0.13181242, -0.19591570, 0.19836089, 0.17372830, -0.00366526, -0.15659717, 0.03861967, 0.05569826,
    0.16955037, -0.21065445, 0.16402350, 0.02350859, -0.14650033, -0.19018225, 0.21665516, 0.12053267,
    0.05266453, -0.05617132, 0.04576769, -0.16852279, -0.06020771, 0.10514206, -0.14815706, -0.18283059,
    -0.20370650, 0.15114610, -0.17762826, 0.02463200, -0.14441399, -0.19225146, 0.00126976, -0.18959880,
    -0.14870434, -0.11455992, 0.17681563, -0.05317269, -0.16304894, -0.17967409, -0.17166777, -0.12327371,
    -0.21753483, -0.08120287, 0.01578850, 0.03666661, 0.25949249, 0.16831428, 0.03869772, 0.11351333,
    -0.09146647, -0.23081776, 0.06126699, -0.00016088, -0.01545230, -0.11650473, -0.04307882, 0.15694436,
    0.12154241, 0.02165065, 0.07614690, 0.25382000, 0.09604718, 0.07422296, 0.15925162, 0.13680470,
    0.03843068, -0.21342830, -0.27722114, 0.17749731, 0.12418435, -0.09591113, -0.00783513, -0.13954327,
    -0.07195184, -0.02207552, -0.09603690, 0.07689263, -0.07405372, -0.18940067, -0.19633420, 0.04306031,
    -0.20852569, 0.20775943, -0.09472016, -0.18331103, 0.10972115, -0.23372868, 0.12979890, 0.04703782,
    -0.11448608, -0.15919501, -0.20736805, -0.07562810, 0.12549101, 0.04405560, 0.19097553, -0.02856736,
    0.04080503, 0.02060164, 0.12310578, 0.01586615, 0.05991568, -0.14219755, 0.10816347, 0.08297656,
    0.05352342, 0.16922382, 0.21327294, 0.13437842, 0.15729460, 0.03298143, -0.16885863, 0.01063399,
    -0.17333116, -0.16992575, -0.46360382, -0.29957166, -0.01171105, -0.11589466, -0.31711134, 0.03396223,
    -0.31029218, -0.13988341, -0.18995608, 0.20366406, 0.12180671, 0.16098379, 0.15279391, -0.21875903,
    -0.19737500, -0.19850399, 0.12478399, -0.13212834, -0.08301245, -0.03179960, -0.04818954, -0.14622448,
    -0.10352079, -0.33480301, -0.18702002, -0.20327182, -0.21191105, -0.09631882, -0.03483342, 0.04891068,
    0.00806950, 0.10508725, -0.28963187, 0.08967566, 0.16460265, 0.10000293, 0.13663065, -0.07246867,
    0.16992013, -0.05240524, -0.14561540, 0.12018864, -0.19406162, 0.14697765, -0.12852284, -0.14848265,
    -0.01108587, -0.05850181, -0.15697071, 0.15861671, -0.12693162, -0.20183279, 0.18177368, 0.11931394,
    -0.21762376, -0.11430313, -0.09815331, 0.16823198, -0.09452458, -0.10864919, 0.09840433, -0.02638153,
    0.08288594, -0.11919466, 0.07874297, 0.15346733, 0.15228209, 0.04516755, 0.08102674, -0.10406953,
    -0.27853900, 0.01807456, 0.18531077, -0.11825269, 0.26664421, -0.00387029, 0.21037383, 0.08613552,
    -0.18432295, 0.17482649, -0.00532078, -0.01793000, -0.27117324, -0.17379934, 0.00750519, -0.08735345,
    0.15703283, 0.10821990, 0.00482530, -0.16213137, 0.10466060, 0.14928794, 0.19394547, -0.08071272,
    -0.09881867, -0.08536195, -0.09651805, -0.02718254, 0.27884486, -0.08392467, 0.11287683, -0.05184606,
    -0.12986550, 0.03112283, -0.25496763, -0.12857614, 0.02433202, -0.22207421, -0.07215617, -0.13984461,
    -0.11942858, 0.04428098, 0.26514915, 0.19339462, 0.01880843, 0.06966890, 0.04155310, 0.18525136,
    -0.23485173, 0.15486127, -0.05743551, 0.01514587, -0.11249154, -0.00797193, 0.89826459, -0.32053754,
    -0.14938822, 0.87235111, 0.60168785, 0.29735443, 0.04343302, 0.03098922, 0.47550285, 0.08587708,
    0.27656329, -0.14398590, 0.26876724, -0.28572643, -0.13436303, -0.00882357, -0.00316439, -0.08235116,
    -0.16400144, -0.12781614, 0.71748906, -0.38361728, 0.50614750, -0.18311419, 0.38828674, -0.16287400,
    0.63670892, 0.50663322, -0.02214622, 0.18034168, -0.18357672, -0.03533505, 0.39226153, 0.30871043,
    0.52686721, 0.12532085, 0.31999990, 0.56521386, -0.05166813, 0.64909905, -0.31187817, -0.10945946,
    0.14933151, 0.12151982, 0.45496550, -0.09238710, 0.03084454, 0.55948269, -0.13457106, 0.07173014,
    -0.18892062, -0.24361692, 0.06015160, 0.03978592, -0.14534812, -0.07711600, 0.03471580, -0.15615506,
    0.03545783, -0.02201758, -0.09500470, 0.11182859, 0.23263648, -0.03371245, 0.02736548, -0.07689615,
    0.18944575, -0.20057428, -0.30194116, 0.08190716, -0.09953158, 0.11648678, -0.01227310, 0.12921534,
    0.04698631, -0.03360764, 0.09484493, -0.13721111, -0.08842813, -0.03836350, 0.07854171, -0.03048462,
    -0.07551740, -0.05283874, -0.14291854, -0.13681592, 0.10299646, 0.10967864, 0.02077924, -0.06099101,
    -0.01952130, 0.04292856, -0.23043440, 0.06304927, -0.14739668, 0.17897263, -0.13046403, 0.04623633,
    -0.03512672, -0.20441623, 0.08605895, -0.11303795, -0.16142347, 0.01819151, -0.15935239, 0.17663847,
    0.12815653, 0.13382132, -0.01824493, -0.02918111, -0.00901731, 0.22725604, 0.10560410, -0.12467067,
    -0.10515078, 0.01830286, -0.22616300, 0.13682817, 0.10543006, -0.04110380, -0.00730639, 0.12187938,
    -0.07204603, 0.11980566, 0.21008441, 0.19326721, -0.06430607, 0.23105431, 0.21911262, -0.01938115,
    0.01012561, 0.20154990, -0.15047438, -0.00415355, -0.08200368, 0.05646479, 0.16314687, 0.22528030,
    -0.17143568, 0.21066569, -0.03215794, 0.21638900, 0.17002648, -0.19202887, -0.11936022, -0.06309227,
    -0.13717161, -0.16280091, -0.16007468, -0.18126184, 0.04395683, -0.21638148, 0.15154785, 0.14880431,
    0.12718089, 0.12556775, 0.08598937, 0.17870627, -0.04949652, 0.17247926, -0.15514870, 0.18314354,
    -0.16610588, -0.04708612, -0.10871951, -0.01646806, -0.05885684, 0.16577920, 0.10772751, -0.08003211,
    0.08494779, -0.17886712, 0.11785857, 0.06238556, -0.09462588, -0.00189101, 0.18806496, -0.12278961,
    0.23844862, -0.03866093, -0.06491939, 0.05167148, -0.18536150, 0.20882614, 0.03860543, -0.04367451,
    -0.11372233, 0.08698642, 0.17150022, -0.09655532, 0.25642186, -0.08422416, -0.16416715, 0.18066162,
    0.19322184, 0.09796049, -0.24770220, 0.07437759, 0.09823222, 0.20166382, 0.17741409, -0.05280497,
    0.09739748, -0.19134775, -0.10418973, 0.10366322, 0.00562731, -0.03141247, -0.17757665, -0.07246178,
    0.13080035, 0.14810710, -0.04700299, 0.19417684, -0.01366779, 0.02394646, 0.11221261, 0.19788831,
    0.06723857, -0.09651939, -0.03816561, -0.11702327, 0.03649465, -0.12982763, 0.07009865, -0.05950863,
    -0.07911670, 0.02982629, -0.08532107, -0.08685441, 0.17926805, 0.19140126, 0.15585886, 0.09213500,
    0.16811846, 0.01676331, -0.19268210, 0.16848485, 0.07508056, -0.18548310, -0.01998908, 0.08234336,
    -0.08256001, -0.05111747, 0.03763375, 0.11623733, -0.19503190, -0.08778392, 0.03224776, 0.10188879,
    0.03177177, 0.13805200, 0.01582331, -0.17836681, -0.01779002, -0.10281643, 0.19506225, -0.35827368,
    0.23220679, 0.21670842, 0.09076086, -0.08116993, 0.10697475, 0.04032343, 0.00950670, 0.01763127,
    -0.09510893, -0.06377801, -0.01425501, 0.18551975, 0.06992076, 0.14420426, -0.12348732, -0.08686974,
    -0.03966754, 0.19563498, -0.13556570, -0.16981310, -0.18201317, 0.20318587, 0.01189755, -0.00993404,
    -0.27483809, 0.20992152, -0.24452205, -0.16791055, -0.08668550, -0.20846801, -0.19777912, -0.21018837,
    -0.07254219, -0.16384692, 0.00768249, -0.19606516, 0.17287633, -0.21491233, 0.09039327, 0.21446110,
    0.06423734, -0.16538714, -0.20272860, -0.01892297, -0.10476986, -0.03777808, 0.15175726, 0.25854114,
    -0.11012751, 0.03709992, 0.11256107, 0.11455666, -0.08517717, -0.02409731, 0.17010303, 0.16094303,
    0.18154149, 0.12316117, 0.23851113, -0.03153350, 0.05191546, 0.07341237, 0.18770440, 0.00921912,
    -0.13992871, -0.11915843, 0.07439593, 0.02735175, 0.11000270, -0.04002449, -0.22258663, 0.23358038,
    -0.07692266, 0.19597897, 0.08928234, -0.00062832, 0.14590019, -0.19689415, -0.02969887, -0.18917368,
    -0.21250829, -0.20499018, -0.03855177, 0.18331836, -0.19027396, -0.00904647, 0.00998343, 0.00781641,
    -0.24650648, -0.07613696, -0.12549314, -0.17936766, 0.05799076, -0.00811451, 0.17803289, -0.13606045,
    -0.17966489, 0.10573057, -0.09498873, -0.23163946, -0.08555914, 0.17131101, 0.13993923, 0.11521010,
    0.02901869, -0.04963851, -0.24115555, -0.23677808, -0.08614212, -0.12151762, -0.01558351, -0.09922971,
    0.02505321, -0.02987727, 0.07110459, -0.10470301, -0.21031509, -0.09901489, 0.09977830, 0.07400980,
    0.17668866, -0.05485124, 0.13892429, -0.15709417, -0.22071190, -0.19369660, 0.05119856, -0.08021119,
    0.09118845, -0.00717026, -0.08386644, -0.02405693, 0.03396773, 0.23168632, 0.08870534, -0.02598398,
    0.09770667, 0.02740062, 0.08945911, 0.13971120, -0.19882111, -0.11097484, 0.19859307, -0.19582330,
    -0.00781374, -0.14087290, -0.08827425, 0.23339561, 0.24537535, -0.02823325, -0.10992086, 0.09631046,
    0.01870248, -0.25046676, 0.07928195, 0.05083556, -0.05669871, 0.13945879, 0.01641784, -0.19382556,
    -0.04426795, -0.21475013, -0.13911323, -0.05822855, -0.16265558, 0.07746166, 0.09196523, -0.16664201,
    -0.01242159, -0.14538184, -0.06199670, 0.05328067, 0.07327772, 0.04293061, -0.15474443, 0.02442139,
    0.06356239, -0.08953658, -0.06414199, -0.16820323, 0.15862677, 0.09008707, 0.10298149, -0.17229337,
    0.14737985, 0.14230299, -0.18964864, 0.20787407, 0.12887326, 0.02908955, -0.03761066, -0.11470988,
    0.08046720, -0.13059373, 0.09744975, -0.11219095, 0.04380105, -0.03275519, -0.04384067, -0.08644094,
    -0.24120510, -0.10080122, 0.18353927, -0.18822953, 0.14339189, -0.03689778, -0.07656614, -0.09847783,
    0.18153180, -0.15480796, 0.21104383, 0.02815660, -0.14961502, -0.03855336, -0.18190429, -0.24086978,
    0.04881021, -0.08953659, 0.00670324, -0.12644649, 0.21552208, -0.05479198, 0.00794389, 0.16589500,
    -0.15148804, 0.02681342, 0.08321150, -0.19823499, -0.11158846, -0.11995663, 0.22211936, -0.05789185,
    -0.20829648, -0.10599318, 0.05325887, -0.03336229, 0.04901929, -0.00301239, 0.15686403, 0.17583609,
    0.12116808, 0.06922993, -0.10756065, 0.02886339, 0.17382583, -0.02321978, -0.12619367, 0.17403971,
    0.07858631, 0.16040221, -0.17994708, -0.00693554, 0.05412886, 0.13762712, -0.08907378, 0.25330511,
    0.15170501, 0.16031905, -0.18969177, 0.09025570, -0.23577815, -0.02763036, -0.04166968, 0.08004145,
    -0.29010263, 0.00578150, 0.17830864, -0.18587027, 0.18435952, -0.11052287, -0.05147171, -0.00035478,
    0.07386331, 0.19067802, -0.18595366, 0.11768282, 0.15271600, 0.18399408, -0.04718404, -0.01061477,
    0.16228817, -0.15968499, 0.19305445, -0.07921711, -0.00666013, -0.02062860, -0.16967729, -0.09820289,
    -0.24893068, 0.16962357, -0.12078235, 0.05395661, -0.03926110, -0.01363441, 0.00720711, 0.12774022,
    -0.06403591, 0.08564787, -0.01184369, -0.02803775, 0.05422395, -0.03073131, 0.12958811, -0.18675886,
    -0.18675512, -0.16824317, 0.06719370, -0.07813160, -0.16562137, 0.01897277, 0.06833345, -0.01854438,
    -0.04166819, 0.21684238, 0.05307764, -0.12262611, 0.15685415, 0.25361812, -0.12638116, 0.17727448,
    -0.05862586, -0.16659199, 0.04439262, -0.03637778, -0.19390655, 0.13595390, 0.14797784, -0.12013640,
    -0.14127447, -0.13809444, -0.05733539, 0.15448603, 0.14746670, 0.17350529, 0.06111651, 0.18477672,
    0.00159491, 0.07714801, -0.21808679, 0.01689345, -0.19868802, 0.05631512, 0.12277779, 0.20426412,
    0.02283629, -0.11041210, -0.14242068, 0.09024604, 0.19324619, -0.06709100, -0.12561280, -0.05925469,
    -0.20551714, 0.05924043, 0.15351209, -0.17425674, -0.07813667, -0.11580147, 0.06955327, -0.03108370,
    -0.10608315, -0.10994886, -0.17282091, -0.06313495, 0.13802047, 0.09535147, 0.01313442, 0.03024226,
    0.16990529, 0.05568546, -0.01229421, -0.00616873, -0.11037956, -0.13896522, -0.17313753, -0.21336523,
    0.17246613, -0.13204618, 0.08442041, 0.09141383, 0.03760109, 0.10939029, 0.11074368, 0.01190729,
    -0.09182777, 0.14274271, 0.10041978, 0.12223458, 0.12603569, 0.03774815, 0.02226094, 0.05196692,
    -0.19916008, 0.07364932, 0.12490471, 0.02509904, -0.13341910, -0.14434801, -0.05338539, 0.00935359,
    -0.17523021, 0.10847761, 0.14532001, 0.08434661, 0.07191073, -0.08598842, -0.08215487, 0.02879546,
    -0.07161910, 0.12141851, -0.03472666, 0.00733766, -0.14250225, -0.11051794, -0.05097070, 0.11259355,
    0.08113942, -0.13496940, 0.11867783, 0.07362515, 0.00348939, 0.00715383, -0.09296588, -0.16852595,
    -0.22896247, -0.07503445, -0.02555991, -0.09740113, -0.11976912, 0.23199271, -0.11804152, 0.17163666,
    0.18878636, 0.13982910, -0.21611916, -0.09667974, -0.08517073, -0.17304572, -0.18575720, -0.02482838,
    -0.14562425, 0.10457293, 0.21753977, -0.11497515, -0.17467757, -0.18342900, 0.08956172, 0.11774569,
    0.13253316, 0.17842916, 0.03407572, 0.16300765, 0.01678034, -0.12518513, 0.30257502, -0.10465389,
    0.04764243, -0.01527753, -0.10544138, -0.00936347, -0.07384256, 0.17330629, -0.20859385, -0.21196020,
    -0.03822460, -0.21563557, 0.17456762, -0.13762835, 0.26922032, -0.06455829, 0.17635712, -0.14139523,
    -0.06522343, 0.26795480, 0.17035669, 0.20595850, 0.10962647, -0.09846192, -0.05784958, 0.02867250,
    -0.14300676, 0.20346603, 0.11554299, 0.18198922, -0.08507833, 0.07025757, 0.20733522, -0.08435465,
    0.08626843, -0.12795661, 0.00194794, -0.17036007, 0.12693112, 0.11777414, -0.20453489, 0.01822487,
    0.21043585, -0.10260458, -0.10256706, 0.09642102, -0.01900622, -0.11615767, 0.15568110, -0.17908227,
    0.00285552, -0.09668750, 0.05107236, 0.11877527, -0.00442927, -0.06079048, -0.13359733, 0.03218492,
    0.18204801, 0.11357699, -0.41408437, -0.49442068, -0.14505321, 0.09294975, 0.28180802, -0.34311199,
    -0.30472624, -0.45771536, -0.11810561, -0.02871463, 0.13664247, -0.07616986, 0.08133956, -0.04885565,
    -0.07018168, 0.10872044, -0.01206839, -0.04113719, -0.41559967, 0.18320508, -0.20313509, 0.01047448,
    0.05416057, -0.65600514, 0.00204520, 0.07044463, -0.20992057, -0.09124844, -0.03352978, -0.09511532,
    0.09626085, -0.04350618, -0.28218040, -0.11585984, -0.17405380, 0.01831767, -0.10518792, 0.07304491,
    -0.09875685, -0.04709245, -0.05260741, 0.39014378, -0.12932065, 0.02954501, -0.03112811, 0.14762460,
    -0.11727417, 0.28652471, -0.39257488, 0.07419499, 0.19054244, 0.15076490, 0.05459418, -0.01273294,
    0.02366983, 0.03295765, -0.08797731, -0.21465056, -0.20288378, -0.20931043, 0.40638855, -0.22762196,
    -0.06407609, 0.55347365, 0.41190079, 0.20660147, 0.02763338, 0.14302744, 0.11788879, 0.01128204,
    0.05994205, -0.10460939, -0.02010501, -0.06425203, 0.16664526, 0.07368843, -0.05581445, -0.13751873,
    0.11097778, -0.03803654, 0.45218107, -0.08138471, 0.61113250, 0.06757253, 0.03818893, -0.20624402,
    0.23194577, 0.37393063, -0.01427739, -0.16867791, 0.13852987, 0.15565757, 0.38175243, 0.12200435,
    0.27971360, 0.06486800, 0.08424961, 0.25437760, -0.03445087, 0.16237223, -0.06491311, 0.05644228,
    -0.19458503, -0.10874779, 0.39998055, 0.02950822, 0.04188774, 0.32705611, -0.16882566, -0.03192124,
    0.03396885, -0.05486618, -0.18084998, 0.11610195, 0.17129771, 0.04895441, 0.06698748, 0.03938117,
    0.16274974, -0.16600980, -0.13205588, -0.01100503, 0.02001034, -0.01944655, -0.15270385, 0.17561294,
    0.12656461, -0.10582573, 0.01046666, -0.18287362, -0.10909601, -0.01667460, 0.04713787, -0.18970384,
    -0.03421155, 0.12537201, 0.10405838, 0.01510055, 0.25107694, -0.02115554, 0.12026148, 0.20069943,
    -0.13750291, 0.10888289, 0.04526563, 0.05114937, 0.23829885, -0.06292149, -0.03161801, 0.14999156,
    -0.14563203, -0.10410567, 0.06526820, -0.15077139, 0.00931612, 0.14190537, 0.15510541, 0.05332692,
    0.23788644, 0.15325730, -0.10992676, -0.19866954, 0.12235795, 0.07192025, 0.09624766, -0.04187784,
    0.17997108, -0.17799635, -0.15767719, 0.20339242, 0.02674635, 0.10586273, 0.12993728, -0.00468365,
    0.13199815, -0.10538238, -0.13613111, -0.15417220, 0.12104259, -0.05564202, -0.02332827, -0.02505765,
    -0.04142024, -0.03603778, 0.04690680, 0.09336978, 0.08528241, 0.06167575, 0.16408117, -0.33819929,
    0.11299700, -0.18484129, -0.02012120, -0.11773974, 0.02662019, 0.03518439, 0.03692215, 0.13390207,
    -0.13619778, -0.02855004, -0.06587267, 0.15275244, 0.02686680, -0.11234124, 0.10343005, 0.09985224,
    0.04328941, -0.11899850, -0.10934413, 0.13869171, 0.01666624, -0.21265276, 0.06611504, -0.20844479,
    0.12381131, 0.05283372, 0.09295285, -0.04063170, -0.13819970, -0.14851992, -0.17865449, 0.18091692,
    -0.01618764, -0.10406574, -0.19433990, -0.09064825, -0.06357054, -0.13958593, -0.13660499, -0.04530911,
    0.00754857, -0.12511194, -0.03203969, 0.07311650, -0.10608424, 0.11863951, 0.11340808, 0.14006935,
    -0.16687056, -0.17545480, -0.07572340, 0.16811424, 0.00388746, -0.09327000, -0.11734376, -0.02125923,
    -0.06874214, -0.03909624, 0.17541258, 0.16338217, 0.14327431, 0.04329139, 0.16458626, -0.14706656,
    0.21207197, 0.20444617, -0.34260145, -0.18441322, -0.23327674, -0.18370087, 0.05014192, 0.24403206,
    -0.25966808, -0.14553414, -0.16688292, -0.21859856, 0.02863625, -0.04584610, -0.12913311, -0.19785647,
    0.07023378, 0.01245797, -0.17432751, -0.03640618, 0.02867563, -0.16980895, 0.21576537, -0.09479462,
    -0.08563596, -0.07050843, -0.02956315, -0.19214274, -0.18631421, -0.03889859, -0.30842701, 0.16736533,
    0.23095004, 0.13866809, -0.12473918, 0.00095472, -0.05329040, -0.25808427, 0.17855252, 0.14473747,
    0.00061195, 0.14206521, -0.10449579, 0.05579208, -0.09410194, 0.15237604, 0.22066438, -0.00475450,
    0.14823455, -0.12875479, -0.07085521, -0.20114146, 0.07166668, -0.03683165, 0.07195668, 0.02330458,
    -0.23597544, -0.11523785, -0.08865310, 0.05168092, 0.23061839, 0.00473047, -0.02025750, 0.05730745,
    -0.07867639, 0.06111098, -0.18486951, -0.16419329, -0.13849737, 0.14079173, -0.21470855, -0.12942640,
    0.01065001, -0.24698605, -0.08825564, 0.09812508, -0.25275147, -0.09082010, -0.17669317, -0.25708678,
    0.14772485, 0.01478794, 0.04556642, -0.12422918, -0.10347323, -0.08460777, 0.10017455, 0.07065938,
    -0.11769234, -0.11086740, -0.11590474, -0.01304184, -0.21520272, -0.17526704, 0.10260015, -0.21069448,
    -0.16702954, 0.01020860, -0.34415135, -0.04402094, -0.11028860, -0.07302066, -0.02911999, 0.10394494,
    -0.14039081, 0.09806980, -0.26181766, 0.01902485, 0.19114345, 0.00429850, -0.10987998, -0.03209074,
    0.17608982, 0.14502643, -0.12035877, 0.20071067, 0.00448963, 0.01517923, 0.10727546, 0.11312555,
    -0.05819981, -0.20725103, -0.05208158, -0.07200427, -0.25284022, 0.20038731, 0.19008800, 0.01223854,
    -0.14267391, 0.02876351, 0.53076422, -0.12738474, -0.05487578, -0.40678850, -0.04025363, -0.04443638,
    0.42927024, -0.12171373, 0.03515954, -0.08636323, -0.16970213, 0.14095809, 0.17031394, 0.26822954,
    0.07176082, -0.01656171, 0.14486453, -0.06720108, -0.07206717, 0.03479347, 0.09536833, -0.13120307,
    0.05550505, 0.22874340, 0.00609866, 0.05147286, 0.17438442, -0.12584059, -0.09679575, 0.02220182,
    -0.04916586, 0.24976243, 0.13025671, 0.21117663, -0.24363679, 0.04955749, 0.02033497, -0.06967695,
    0.15498613, -0.06913692, -0.07087725, -0.07607036, 0.21560316, 0.21073548, -0.02667353, 0.05333826,
    -0.10856141, -0.27709711, -0.25594726, -0.07446271, 0.18115549, 0.17917512, -0.12608616, 0.01338847,
    -0.18617943, 0.07710167, 0.17551190, 0.18402924, -0.05444711, 0.25463992, -0.07372410, -0.06948166,
    -0.03778153, -0.04409588, 0.14776428, -0.09178445, 0.09045494, -0.02079886, 0.09215828, 0.22280315,
    0.17383711, 0.16995397, -0.00286108, 0.06631208, -0.14737102, -0.07355650, -0.02775849, 0.03725340,
    -0.13439900, -0.20476009, -0.18398523, 0.04425878, 0.11334359, 0.12258489, -0.25143948, 0.10569509,
    -0.27392691, 0.21407056, -0.16345817, 0.05743800, 0.08469977, -0.20472322, -0.18203658, -0.12014949,
    0.14109190, -0.00347026, 0.03492032, -0.11653560, 0.00618286, 0.05088520, 0.11341821, -0.02175979,
    -0.11583866, 0.01375981, -0.12179928, 0.05546078, -0.05871895, -0.24074961, -0.03406303, 0.10871466,
    -0.12393421, -0.22782448, 0.07022416, -0.13857020, 0.00704983, -0.02671652, 0.14920360, 0.07814021,
    0.07992520, 0.24058907, 0.03535892, 0.00179376, -0.13869146, -0.17690980, 0.10301287, 0.10756280,
    0.09208576, -0.07860377, -0.17749472, -0.06703234, 0.11576109, -0.15060355, 0.07015578, 0.19161490,
    0.12783453, 0.09397846, -0.05273042, 0.12232384, 0.07913020, 0.09937400, -0.23917821, 0.02494124,
    -0.19964541, -0.00480446, 0.08765244, -0.11951157, 0.05572711, -0.08920084, 0.13415103, -0.04181698,
    0.03837968, 0.00438552, -0.22962642, 0.17845596, -0.06658601, -0.12383312, -0.10906809, 0.22074243,
    0.16871504, -0.06439237, 0.13380761, 0.28525645, 0.01759932, 0.00649933, -0.12374459, 0.06384234,
    0.14386308, 0.07688092, 0.03649015, -0.01652695, -0.13826625, -0.14401501, -0.08531462, 0.04798048,
    -0.13657291, 0.14389640, -0.00048273, -0.21095830, -0.11351482, -0.08317867, 0.09755498, -0.18910813,
    -0.18431039, -0.16987494, -0.15287474, -0.04044274, 0.03660477, -0.10956394, -0.05958427, 0.00421414,
    -0.21989202, -0.18665977, -0.19304149, -0.15219095, -0.17854981, -0.18776895, -0.20636880, 0.08941559,
    0.13681068, 0.11965033, -0.16691165, 0.10993864, -0.07059917, 0.01191938, -0.03970611, 0.16441026,
    0.06194080, 0.09482606, 0.09066277, -0.04229280, 0.09846372, 0.16529377, -0.06241026, -0.25972739,
    -0.01901517, -0.15226881, -0.23085955, 0.07295798, -0.04586851, -0.06641240, -0.15921463, -0.02617203,
    0.24402149, 0.15908611, 0.19382143, 0.09099363, 0.18527988, -0.18027267, 0.18090822, 0.10232379,
    -0.13628764, 0.15984656, 0.07083617, 0.00892201, -0.14949232, 0.19895656, 0.04982477, -0.01925474,
    0.07238223, 0.01141779, -0.12417690, 0.01012979, 0.00073223, -0.16728064, -0.07921966, -0.06280155,
    -0.08750065, -0.10518510, 0.04254057, 0.14064540, 0.23699182, 0.01417173, 0.12033577, 0.22580896,
    0.16486681, 0.06591400, -0.26820502, 0.05485558, 0.03289833, -0.17977534, -0.23581025, 0.03190161,
    0.11786386, -0.15961495, 0.16958205, 0.01317209, -0.07392751, -0.19227313, -0.18219092, -0.14456171,
    0.07738362, -0.09498272, -0.15587890, 0.22862609, 0.09945036, 0.13699199, -0.09162443, 0.17777644,
    0.14633727, -0.11666632, -0.04188892, -0.21501021, -0.05999258, -0.02115506, -0.09389718, -0.04148449,
    0.14839770, 0.04946404, -0.11124872, -0.07713231, 0.17151427, -0.09400495, 0.22276576, -0.16667974,
    0.18144874, 0.00028333, -0.17181908, 0.19148369, -0.01566894, 0.12407475, 0.08421705, 0.19571780,
    -0.14852948, 0.10830149, 0.25589991, -0.23728369, -0.20513253, -0.00994949, 0.01675852, -0.13194247,
    -0.19719775, 0.03618987, -0.09223276, 0.17434807, 0.08861892, -0.01588646, -0.00172278, 0.10038207,
    -0.08807479, -0.15747094, -0.04500125, -0.03697598, 0.08335395, -0.02415527, -0.08566169, -0.21580149,
    0.14616071, 0.06360550, 0.20558979, -0.08746454, -0.15374759, 0.09852700, 0.00456773, 0.10154830,
    0.06742786, 0.05282496, -0.16764414, -0.05383147, -0.01091740, 0.04980396, 0.10035802, -0.08492969,
    -0.00983112, 0.17143075, 0.17851378, 0.16470645, -0.14538607, 0.16048177, -0.04070272, 0.07613157,
    -0.15958712, 0.12539180, -0.17941609, -0.15173724, 0.12678774, 0.06050800, 0.00423901, -0.19523390,
    0.21475409, -0.06683584, 0.06417765, -0.18102552, 0.18292381, -0.00806709, 0.18459304, -0.03250767,
    -0.19179709, 0.03891055, -0.14959803, 0.18588357, 0.07057963, 0.20863943, 0.21404980, -0.17814523,
    -0.06620975, 0.02976704, -0.02877053, 0.15690586, 0.19805844, -0.15895984, -0.14411163, -0.03506873,
    0.12913276, -0.08969675, -0.29313561, -0.06376138, 0.10151599, 0.00180611, -0.16216815, -0.01866085,
    0.01494022, -0.30066237, -0.08983466, -0.08284906, -0.22106256, -0.11782548, 0.06154288, -0.05595785,
    0.15663475, 0.00938295, -0.10120585, 0.05324069, 0.16987039, 0.06947230, -0.21367626, 0.00531087,
    0.03235862, -0.08910190, -0.11776998, 0.05417810, 0.01986198, -0.03409150, 0.04606189, -0.15202820,
    -0.06432380, -0.12851191, -0.18418036, -0.21203971, -0.01195243, -0.12308455, -0.16705889, -0.06920092,
    -0.08631989, 0.21064545, -0.03274567, 0.11030055, 0.18283398, 0.09594011, 0.08616887, -0.23049940,
    0.03318856, 0.14756162, 0.07387670, 0.18633126, 0.16157801, 0.03240815, 0.10544894, 0.15430130,
    -0.15564230, -0.10639047, 0.21114320, -0.09727627, 0.21986529, -0.11947449, 0.16987011, 0.08430526,
    0.00856170, -0.07219094, 0.10336787, 0.01949580, 0.15276690, 0.18509735, -0.08589320, 0.16638876,
    -0.16847610, 0.15650161, -0.03511690, -0.10857352, -0.07232200, 0.07292017, 0.15095253, 0.17044610,
    0.19390093, -0.01246344, 0.12728070, -0.07990544, 0.01591771, -0.03417927, -0.05932765, -0.00045675,
    -0.00236171, -0.01400374, 0.22772565, -0.19512415, 0.01072349, 0.11144558, -0.21444491, -0.18969688,
    -0.15023498, 0.07945085, -0.05577338, 0.03985485, -0.18386920, -0.01164518, -0.01481748, 0.05055185,
    0.07723185, -0.21444380, -0.20167330, -0.08699507, 0.11233444, 0.10515452, 0.11058915, -0.19605730,
    -0.17436396, 0.23035498, -0.18007149, 0.01770750, 0.10691057, 0.14906858, -0.11659463, -0.16770458,
    -0.14492868, 0.09599110, 0.22059977, 0.15119012, -0.01967722, 0.23869212, 0.06312904, -0.00381193,
    -0.08952432, -0.15267178, -0.26681089, -0.08510566, 0.09799835, 0.20696983, -0.26343119, -0.03198095,
    -0.23771077, -0.19699043, -0.15740831, 0.14694794, -0.17128670, -0.16695559, 0.13831167, -0.15760933,
    0.04405694, 0.09713192, 0.14960390, 0.16169885, 0.05163651, -0.00122193, -0.01404452, -0.19916719,
    0.07849171, -0.28816840, 0.10935579, 0.17322870, -0.11951980, -0.05588197, 0.18353257, -0.03533560,
    -0.06051753, -0.15131088, 0.11454146, -0.18007591, -0.16680816, 0.15705395, 0.07642928, 0.07216875,
    -0.07923317, 0.06676166, -0.12164773, 0.04049629, -0.06149057, 0.01594606, 0.18728290, 0.15290359,
    0.19620633, -0.12550031, -0.00385301, 0.12995966, -0.03596050, 0.10379545, -0.07224216, 0.04851978,
    -0.16943176, 0.04955871, 0.04354057, -0.05741886, 0.04726424, -0.29114991, -0.22768402, 0.04509100,
    -0.01872073, 0.05040564, -0.29784811, -0.03892645, -0.11128414, 0.25989467, 0.00758186, -0.02368498,
    -0.10866477, 0.10319889, 0.08410089, 0.14593530, -0.20029281, -0.08952338, 0.07849497, 0.18227254,
    0.18056606, -0.07247688, 0.03882242, 0.11437532, -0.26891845, 0.20349155, -0.13210732, -0.12400599,
    0.25374976, -0.13746828, -0.14979614, 0.01105119, 0.06685303, -0.21072099, -0.02905735, 0.03616246,
    0.00931348, -0.17862484, -0.34019625, 0.03975132, 0.17771773, -0.20439096, 0.06089587, 0.02400218,
    -0.03289610, 0.17973723, -0.09504660, 0.16081153, -0.15158924, 0.14473090, -0.20178840, -0.12777472,
    -0.07133257, 0.11778198, -0.19723219, 0.03122946, 0.08022562, 0.02736382, -0.04710101, 0.01859237,
    0.16029005, 0.14829405, -0.08467793, 0.06404149, -0.10634732, -0.20327567, 0.29014793, -0.12707266,
    -0.11228023, 0.01051098, -0.20717892, 0.09427863, 0.02605523, -0.12579580, 0.23043819, 0.24375944,
    0.04871665, 0.04875170, 0.18334316, 0.04432398, -0.16962112, -0.11209191, -0.20868763, 0.21806547,
    0.09040864, -0.04678440, -0.17501889, -0.04985489, 0.15564768, -0.16018461, -0.04268435, 0.00722349,
    0.02320022, -0.15327772, -0.22193067, -0.08979876, 0.20622611, -0.11529940, 0.07601651, -0.15054838,
    0.01778656, 0.15956563, 0.21260831, 0.30268568, 0.22852640, 0.11338417, -0.08219411, -0.16145563,
    -0.08448538, 0.16856240, 0.17748858, 0.20106995, -0.15785597, 0.10327437, 0.13466653, 0.12060605,
    0.01432869, -0.20983925, 0.04510187, -0.01064311, -0.14941081, 0.02800111, 0.15651241, -0.15446362,
    0.03485303, 0.10323841, 0.10832802, 0.00741872, -0.16827078, -0.07841563, 0.03198542, -0.00638432,
    -0.14302133, 0.08464145, 0.26455849, 0.22840752, -0.21750107, -0.08681235, 0.09273402, 0.16719019,
    0.05988266, 0.26474166, 0.01789840, -0.09491186, 0.03376765, -0.12822379, -0.22286417, -0.05625862,
    -0.00912569, 0.07728873, 0.13315451, -0.10299435, 0.23092264, 0.06155656, 0.18544647, 0.13895898,
    0.05710477, 0.36445525, -0.16105185, 0.14846955, -0.30225492, -0.10553607, 0.08237630, 0.22879840,
    0.26409325, 0.15946564, 0.16069651, 0.43827525, -0.07234046, 0.02757306, -0.14069001, -0.19745760,
    0.09537098, 0.14352144, 0.27504936, -0.09101472, -0.20265089, 0.23873352, 0.21248262, 0.12819235,
    0.27299452, 0.19595036, 0.07349050, 0.03456447, -0.19922085, -0.13636459, 0.18516484, 0.16542709,
    -0.02217383, -0.11267655, -0.02772576, -0.12997949, -0.11131927, -0.12657386, -0.10397789, -0.12329484,
    -0.18219945, -0.03876695, 0.23611383, -0.27553332, 0.09943219, 0.11438666, 0.03953048, 0.07260057,
    -0.06552509, -0.03952435, 0.18479162, -0.07383420, 0.02582164, -0.20959970, 0.05612121, 0.17461711,
    -0.06032861, 0.11062558, 0.22255605, -0.06861530, 0.11565556, -0.22055842, 0.04822609, 0.12870452,
    0.04936557, 0.18074477, 0.16513094, -0.19652407, -0.09116708, 0.01274929, 0.17726208, -0.09018711,
    -0.20855424, -0.18970251, -0.03156959, 0.00915468, -0.00413083, 0.09110542, 0.02188027, 0.01652928,
    0.00488283, -0.17778555, 0.23488675, -0.09525542, 0.02002039, 0.15432069, -0.17692620, 0.12826006,
    -0.01179480, 0.09424515, -0.14602558, 0.03455352, -0.06942100, -0.20176423, 0.19461872, -0.17684314,
    -0.09647647, -0.16411683, 0.15399572, 0.00755225, 0.04179721, -0.11399293, 0.13538152, -0.19757660,
    0.04398717, 0.28964937, 0.19827583, -0.31181172, -0.10656162, 0.03858849, 0.15726121, 0.12216042,
    -0.32399434, -0.15519686, -0.10394172, -0.11205608, -0.20589702, 0.02994153, 0.08015014, 0.19655630,
    -0.18626249, 0.11330652, -0.10201961, 0.14540222, -0.01493342, -0.19650976, -0.24583025, 0.16490066,
    0.09000044, -0.13144441, -0.00993678, -0.18967187, -0.08361655, -0.13104251, -0.04578055, -0.10010513,
    -0.02239382, -0.05444461, -0.36183733, 0.00104465, 0.04792437, 0.03541226, 0.14208156, -0.10848086,
    -0.09616526, 0.16728689, -0.09048215, 0.26041016, 0.11532660, -0.00143941, -0.00523693, 0.11582204,
    0.15399015, 0.20682272, -0.10158231, 0.16286887, -0.04611479, 0.16639964, 0.12937775, 0.05630986,
    0.01454747, 0.06060707, -0.11488953, 0.01381431, -0.08900557, 0.16975479, 0.08897774, -0.20067497,
    0.14085352, -0.03733929, 0.39970186, 0.06035582, -0.07991157, 0.01157682, -0.17264080, 0.21152416,
    -0.23001514, -0.24247386, 0.05126243, -0.06654269, -0.19683395, -0.11053319, -0.20502919, -0.18157586,
    -0.19845168, 0.10896956, 0.10866804, -0.06631123, -0.01311354, -0.03005741, -0.21694466, 0.08614694,
    0.14776681, 0.09475392, 0.03331647, -0.10612146, 0.19563612, 0.15443766, -0.10377243, 0.14900957,
    0.13771296, 0.07512426, 0.00889652, 0.21912460, -0.07371107, -0.02490806, -0.10952117, 0.20639430,
    0.09018242, -0.11925115, -0.11162837, -0.01933473, -0.01542521, -0.10151374, 0.05014237, -0.29202488,
    0.06327168, -0.04339652, -0.07726529, 0.13059388, 0.11900719, 0.05712937, -0.07627390, -0.00953452,
    0.11927223, -0.08870752, -0.09413847, 0.04624364, -0.01335347, -0.09664695, 0.04827699, 0.09878962,
    -0.17094219, 0.13654263, 0.41093811, 0.16374560, -0.16799283, 0.09874050, -0.06316316, 0.02910257,
    -0.21548153, -0.12714583, -0.10119172, 0.02552085, -0.16971821, 0.01878627, -0.07606833, 0.06024969,
    0.20311840, 0.01045448, -0.20572786, 0.20621386, 0.15207204, -0.01958884, 0.07764592, -0.06806045,
    0.10781471, -0.08295648, -0.07231109, 0.10873489, 0.01860476, -0.19417372, -0.02882913, 0.03472593,
    -0.02468313, -0.04839211, 0.16805781, 0.04523866, 0.16979966, 0.13920166, 0.03257829, -0.04106694,
    -0.21898219, 0.16243039, 0.14959614, 0.08907738, 0.00632520, -0.15558727, -0.01698690, -0.48210266,
    -0.10877988, 0.08075959, -0.08461851, 0.13533267, 0.17264961, -0.01441738, -0.04463710, -0.16524491,
    0.02766700, -0.16505918, 0.14673857, -0.00811928, -0.01382969, -0.12151369, 0.12576759, -0.02156348,
    -0.15980858, -0.10235365, -0.15665163, -0.07155500, -0.19229423, 0.02636554, -0.08311570, 0.18787540,
    0.04578912, 0.18015425, -0.10523477, 0.10760815, 0.14171764, -0.15195630, 0.18613631, 0.14979208,
    0.11294417, 0.12352075, 0.02200097, 0.11093242, -0.21384431, 0.18904360, -0.12347382, 0.06618641,
    -0.03644459, -0.02952473, 0.07831300, 0.07937934, -0.03883772, -0.14478947, 0.08772585, -0.04269026,
    -0.23728751, -0.15444103, -0.23508246, -0.15852949, 0.03539989, -0.05740241, -0.21431401, 0.10133253,
    0.11001240, -0.10665484, -0.10372662, 0.18083891, -0.12156905, 0.00076204, -0.07020684, 0.03118743,
    0.15904637, -0.02906961, 0.15086485, 0.02676499, 0.13868667, 0.05519496, 0.13621880, -0.14809397,
    0.20339839, -0.01583298, 0.15278159, 0.16175888, -0.01482135, -0.20641367, -0.20992237, -0.11867528,
    0.13244851, -0.00435460, 0.21568577, -0.19762562, 0.14723496, -0.16671623, 0.15735088, -0.04992867,
    0.00634569, -0.20594290, 0.19462334, 0.10819824, 0.16565235, -0.08799571, 0.06143899, 0.14288677,
    -0.03282936, 0.17003323, 0.10627575, -0.04384685, 0.15095676, 0.20808195, -0.18424687, 0.09001039,
    -0.01157115, 0.15483515, -0.03857286, -0.18216924, 0.09809385, -0.20222643, 0.00352249, -0.04511796,
    -0.01898088, 0.02492037, -0.02491258, -0.03365800, 0.19435368, 0.03827016, 0.04405291, -0.15701364,
    -0.20670217, -0.14779502, -0.17845696, -0.08783646, 0.15811510, 0.07604970, -0.09741279, -0.20639715,
    0.07619135, 0.08897699, -0.09903590, 0.05948873, -0.05355512, -0.14365600, 0.05993234, 0.16687544,
    -0.22644764, 0.11950614, -0.00651078, 0.00301570, -0.06326137, -0.14603318, -0.15487489, 0.03807860,
    0.14660883, -0.00723512, -0.07034169, 0.00996002, 0.09435644, 0.11034660, 0.14012030, -0.18919349,
    -0.03986901, 0.02945696, 0.18345310, 0.04375567, -0.14621170, 0.02061297, -0.06166559, -0.22463082,
    -0.14338513, -0.14295529, 0.12814209, -0.17213081, -0.15747531, -0.20329589, 0.18608302, -0.04277216,
    -0.08436535, -0.07767811, 0.02642202, -0.12476356, 0.10307085, -0.17977872, -0.17490175, -0.20105471,
    0.00244369, -0.24461284, -0.33782548, 0.03060415, -0.07504465, -0.17743786, -0.12451660, -0.09112698,
    -0.07640569, -0.09553107, -0.07661924, 0.17234452, 0.13822001, 0.20981885, 0.21225861, 0.09003253,
    -0.11905663, 0.21835358, 0.07664831, 0.19194655, -0.01821225, -0.07866369, 0.11296684, -0.00135723,
    -0.08244299, -0.30497080, -0.30345228, 0.06846345, -0.07880276, 0.15761578, -0.09671945, 0.08415396,
    0.15390635, 0.08856272, 0.58252567, 0.27505076, -0.18854359, -0.31892255, -0.00878393, -0.00577701,
    0.72684753, -0.16058339, -0.08104217, -0.10330933, 0.03640651, 0.19817103, 0.11387064, 0.11212853,
    -0.07361013, 0.16355097, -0.07362527, -0.04958807, 0.41716498, -0.18849829, 0.22583075, -0.01048302,
    -0.39982420, 0.52126664, 0.09454981, 0.08429231, 0.25650579, -0.04654932, 0.01987501, -0.00496013,
    0.15740789, -0.05326878, 0.12373722, 0.07845660, -0.25551075, 0.10358401, 0.06708957, -0.00405242,
    0.00162259, -0.01678263, 0.31378183, 0.06515764, 0.19433013, 0.10437880, -0.04220590, 0.03867093,
    -0.12384100, -0.78409249, -0.29702088, -0.23885041, -0.02539783, 0.02864677, -0.02955043, 0.14878960,
    -0.08326012, 0.20710300, 0.22622962, 0.10207307, 0.09184655, 0.07640845, -0.04039694, -0.11534689,
    -0.05695351, 0.09277931, -0.10349189, 0.06445134, -0.12786792, -0.07208131, 0.11062875, -0.19454037,
    -0.10208007, 0.13121338, 0.03379225, -0.10040043, -0.07813545, 0.06042270, -0.15441234, -0.27248108,
    0.04682080, -0.12206832, 0.15207265, 0.05919527, -0.15913896, 0.16793856, -0.12107839, -0.11767990,
    0.08366514, -0.05774845, 0.10863752, 0.11911906, -0.23579057, -0.04227076, 0.14668922, 0.05697319,
    0.05583056, 0.06531225, 0.13512440, 0.26036149, 0.19739573, 0.01092526, -0.11516010, -0.00898436,
    -0.16476835, -0.13894375, 0.04144402, 0.14612255, -0.08947109, -0.17123748, -0.12550354, 0.16138148,
    -0.19173717, -0.12838440, -0.19422476, 0.11450432, -0.06525226, -0.09682382, -0.06059847, -0.05308558,
    0.08607014, 0.08551701, 0.09516431, 0.06348368, -0.19021390, 0.10263795, 0.02394766, 0.00935965,
    0.11607378, -0.14792922, 0.20236672, 0.08333100, -0.02003713, 0.28704488, 0.14881307, -0.02999122,
    0.12008794, 0.20994201, -0.14800775, 0.02373903, -0.18718551, -0.14020398, 0.04705341, -0.18402976,
    -0.11772420, -0.05090798, 0.15315072, 0.12228444, -0.57787842, 0.17857105, -0.31667733, -0.00341905,
    -0.16780949, 0.13089968, 0.09054267, -0.11355431, -0.22620656, -0.11990668, -0.03344918, -0.01868413,
    0.06134897, 0.27765998, -0.06887764, -0.04084826, 0.21144693, -0.06426266, 0.12346239, 0.17026706,
    0.00586485, 0.07395752, 0.34086215, 0.08138538, -0.13041881, -0.01841964, 0.26689914, 0.22643343,
    -0.01726727, 0.33680895, 0.18758336, -0.23540297, 0.15464754, 0.18263309, -0.07841837, -0.06451099,
    0.03165413, 0.12395479, -0.13933624, -0.16004519, 0.14618890, -0.08491467, 0.22269830, -0.04662978,
    -0.00229300, 0.14380930, 0.06105083, -0.18269224, 0.06097608, 0.11556037, -0.16626069, -0.18233120,
    0.15300870, 0.09128672, 0.14061595, -0.00878815, -0.06207475, -0.00127552, 0.09341108, 0.13879889,
    -0.16112970, 0.04457570, -0.17181100, 0.12252295, 0.20261979, 0.06613500, -0.19353873, -0.20148644,
    -0.04432980, 0.07526983, -0.16205312, -0.14029396, 0.15788707, 0.03138949, 0.15725519, -0.08360641,
    0.06408741, 0.09103972, -0.22623755, -0.11139139, -0.07828487, 0.05108771, -0.06349152, -0.20279311,
    -0.01452794, -0.12427451, -0.10236990, 0.10201602, 0.00344840, -0.03134880, 0.15615717, -0.19512360,
    0.03698614, 0.08886643, 0.14461929, 0.13973054, 0.09815042, 0.11855315, 0.15375000, -0.13892019
};

const float dense_1_bias[64] = {
    -0.03097375, 0.01533949, -0.21447061, -0.10035265, -0.27425218, -0.29480591, 0.64252877, -0.31603840,
    -0.11370789, 0.79461330, 0.16151160, 0.45286155, -0.03750892, 0.06265948, 0.39744917, 0.17759669,
    0.08750805, 0.29956573, 0.17609674, -0.25070924, -0.21771961, -0.00885391, -0.02825744, 0.03353022,
    -0.00569398, -0.02634801, 0.33893099, -0.56647229, 0.46699479, -0.00522226, 0.49751034, -0.33052242,
    0.22778222, 0.42397591, -0.03052810, 0.00000000, -0.14135815, -0.05621441, 0.51689374, 0.49135658,
    0.41463143, 0.21474965, 0.49456730, 0.48208207, -0.22211705, 0.36087206, -0.28170958, 0.00000000,
    -0.01878706, 0.00000000, 0.41465813, -0.41602039, -0.00914866, 0.35959539, -0.24955741, 0.09039543,
    -0.26085699, -0.14037704, -0.13199021, -0.14439954, -0.01593381, 0.00000000, 0.25245106, -0.04784864
};

// Layer 2
const float dense_2_weights[4096] = {
    0.14462999, 0.19595812, -0.13404822, 0.04471670, -0.10772346, -0.12146180, 0.14013357, 0.08444559,
    -0.15924808, 0.06562131, 0.02425922, 0.19776502, 0.18364845, -0.07705718, -0.19478129, 0.10752869,
    0.12330664, -0.03462738, 0.11480117, -0.00199541, -0.01663773, 0.04261115, -0.13185675, 0.03273036,
    -0.03994662, 0.00609774, -0.15331210, 0.06887411, -0.06933449, 0.10277240, 0.04089069, -0.19155337,
    0.22060493, -0.01678017, -0.07170904, 0.08460991, 0.02285888, 0.22086728, 0.17470051, 0.04325493,
    -0.14080080, 0.09373123, -0.02241556, -0.17457716, 0.16605686, -0.04941948, -0.18723151, -0.06788784,
    0.14325230, -0.16461106, -0.10285366, -0.13287915, -0.06966429, -0.19120221, -0.12172186, 0.08828837,
    0.01368062, -0.22432742, -0.19639333, 0.00576931, 0.09806426, -0.14126244, 0.07731020, -0.33150786,
    -0.05916046, -0.04964196, -0.04082593, -0.13813758, 0.00136559, 0.01850969, 0.17959623, -0.02208650,
    0.10939927, -0.04473431, 0.13501003, 0.18371472, -0.16975433, -0.12970653, 0.02142329, 0.00686523,
    0.05917850, 0.09126977, 0.07674804, -0.12409420, -0.00348532, -0.09828951, 0.16350049, -0.16684264,
    -0.12720932, -0.06572017, 0.17495894, 0.20443651, 0.15709272, 0.18178441, -0.10322016, 0.15114391,
    -0.18396078, -0.28932703, -0.42594698, 0.16028216, 0.09227812, -0.07467867, -0.12674940, -0.19935635,
    -0.19981380, 0.10485063, -0.18997160, 0.03948839, -0.03724429, -0.15420143, -0.11621839, -0.21123217,
    -0.19724818, 0.18203624, 0.13563880, 0.13291569, 0.11143649, -0.01218563, 0.04179793, -0.08314132,
    0.03281778, 0.01621405, -0.07678602, -0.17934111, 0.03628282, 0.20373507, 0.04556586, 0.16395135,
    0.07019752, -0.16933505, -0.13396104, -0.06455371, -0.00821079, 0.05227602, -0.13016663, 0.04969427,
    0.00251789, -0.15280871, 0.20018049, -0.02746966, -0.13725054, 0.09029939, 0.10032154, 0.13624620,
    0.01854266, 0.17556530, -0.12545829, -0.05858866, -0.09097589, 0.00470806, 0.19939435, 0.07573915,
    0.00058970, 0.02138160, 0.25731501, -0.16018015, 0.05254641, -0.09654962, -0.36043468, 0.15450370,
    0.03333350, -0.15428601, -0.46637034, -0.15010118, -0.10612524, 0.20620881, 0.02608775, 0.14584607,
    0.19773696, 0.10785532, 0.19907954, -0.08563881, -0.16359949, -0.00316511, 0.06688774, -0.21189885,
    -0.15054664, -0.17292279, -0.16829979, -0.12049445, -0.08240058, 0.04036358, -0.00541568, -0.00995885,
    0.02605584, -0.07976079, 0.12608029, -0.21477824, -0.06000303, 0.02096127, -0.01502782, -0.18642373,
    0.14034805, 0.15773483, 0.14799869, 0.08456780, -0.00647938, -0.04464529, 0.01878121, -0.15967867,
    0.11360124, 0.20652439, 0.18607485, -0.11481725, 0.11891495, 0.06040920, -0.15340549, 0.14472859,
    -0.11506615, 0.10407158, 0.09648358, 0.00931304, -0.06916688, 0.21965955, -0.11445278, 0.05878320,
    -0.14436829, -0.22655936, -0.17364645, -0.08046662, -0.14720124, -0.12601927, -0.19316743, 0.18931593,
    0.10327531, -0.14650343, -0.16270693, -0.17959993, 0.06117116, -0.05754201, -0.20631813, -0.16371912,
    0.09631009, 0.08824070, 0.02509655, -0.01968190, -0.01912432, -0.03552124, 0.14192563, -0.13215727,
    -0.19260895, 0.02600126, -0.26676425, 0.00508157, -0.03743911, 0.18587710, -0.18962419, -0.08327353,
    -0.25947422, 0.17473339, 0.06487770, 0.05325636, 0.04536070, 0.02784516, 0.10925123, -0.05138958,
    0.17814006, -0.03437244, -0.10702118, -0.14263269, -0.15479763, -0.17706226, 0.01008108, 0.06392299,
    0.23621225, 0.08758447, -0.04984421, 0.05408076, 0.13041689, -0.01416114, -0.00028288, -0.04827901,
    -0.14119902, 0.00971919, 0.18293180, -0.20617764, 0.16556388, -0.08598579, -0.02857608, -0.14667790,
    0.04473586, -0.01992027, 0.22241729, -0.04777149, -0.04979669, 0.21186362, -0.36946693, 0.14666823,
    0.04007173, -0.31872669, -0.94618005, -0.22526599, -0.13042405, -0.17927173, -0.15624204, -0.13993613,
    0.16416626, 0.16349149, 0.16579042, -0.11360610, -0.22966145, 0.08493268, -0.10713322, -0.05677067,
    0.14199670, -0.00769062, -0.21418564, 0.14554167, -0.21036772, -0.14704110, -0.30262399, -0.17169276,
    0.17708521, 0.17778806, -0.02230340, 0.11236924, 0.15959562, -0.13245484, 0.19727840, 0.03055260,
    -0.11157792, -0.13843074, 0.16486156, 0.18608204, -0.00850610, 0.09705948, 0.18374942, 0.15486963,
    0.20605597, -0.17706883, -0.14025831, -0.01721414, 0.06067033, -0.04382120, 0.30210772, -0.10933287,
    -0.09553716, 0.02275137, 0.19716695, -0.00760242, 0.15200858, 0.09142526, 0.06630427, -0.13101587,
    0.15589552, -0.02869361, -0.13581119, -0.04333647, 0.14386435, 0.19477865, 0.18614401, 0.14536750,
    -0.04178592, -0.53632367, -0.46104780, -0.22520985, 0.26030916, -0.14371684, 0.06380679, -0.13755749,
    -0.19860566, -0.01027793, 0.01092415, 0.14298217, -0.04305041, 0.08822281, 0.17354742, -0.18032098,
    -0.00311403, 0.17994241, 0.05637759, 0.05452493, 0.25288934, 0.05458928, 0.30417630, 0.16541049,
    0.05106560, -0.05481058, -0.22212973, 0.10261755, 0.04672893, -0.27353480, 0.14918236, -0.18015873,
    0.04545581, 0.04631235, 0.27514762, 0.03070910, -0.12636948, 0.10664075, -0.25427091, -0.11022115,
    -0.23688275, -0.06939291, 0.21878052, 0.27073041, 0.04898123, 0.10974311, 0.16383652, -0.04876330,
    0.12533528, -0.04708816, -0.01370432, -0.12463563, -0.10890270, -0.02239428, -0.12009249, 0.14362846,
    -0.13632368, 0.16684781, -0.23059787, -0.17195666, 0.01090772, -0.15670939, 0.23043866, 0.35225546,
    -0.16521272, 0.12809832, 0.11357040, -0.21753432, 0.11991578, 0.30634427, -0.07197478, -0.01031119,
    0.02333133, 0.20255084, -0.04792375, 0.01145252, 0.17002931, 0.00121943, 0.19265579, 0.03516088,
    -0.19093479, 0.02661180, 0.06906360, -0.04285098, 0.27333954, 0.17497316, -0.00347175, -0.10828920,
    -0.04086975, 0.12963186, 0.03116171, 0.38184664, 0.13448711, 0.00484796, 0.16483645, 0.13335931,
    0.05076270, 0.19499479, -0.45786133, -0.09398309, -0.16853261, 0.17613502, -0.11040305, 0.21341728,
    -0.03690889, -0.14055787, -0.28144562, -0.10049745, 0.04392634, 0.03674245, -0.09580982, -0.17055894,
    0.04930724, -0.02562669, 0.10825457, -0.20260860, -0.01452822, -0.14691478, -0.07847124, 0.09114720,
    0.01742151, -0.57200074, 0.21356697, -0.13220851, -0.19273883, 0.26100227, -0.12769911, 0.04718219,
    0.00793047, -0.15022944, -0.21246496, -0.15885551, 0.11657830, -0.05248325, -0.01324888, -0.05351285,
    -0.07922278, 0.22620769, 0.21371262, -0.04024696, -0.33850220, -0.03195829, 0.03589592, 0.11689463,
    -0.17363840, 0.00653463, -0.24121408, 0.11305236, -0.24029821, 0.17842250, -0.00669158, 0.16495600,
    -0.04326778, 0.11329920, -0.06788355, 0.08709064, 0.00525246, -0.27308264, 0.14793618, -0.12125968,
    0.01153843, -0.20158444, -0.17707674, 0.12919968, -0.07951923, 0.17114545, -0.16963232, 0.12119482,
    0.06888979, 0.03150333, 0.21632519, -0.15037760, 0.08084516, 0.01267031, 0.13300841, 0.07768624,
    0.17411050, 0.23637564, -0.10958643, 0.11745758, -0.22238714, 0.01430920, -0.01188289, 0.05778039,
    -0.15023176, -0.13904412, -0.03856575, 0.06783054, -0.21443170, -0.18008880, 0.02002666, 0.24516101,
    0.09160212, 0.11885440, -0.08097737, 0.13489705, -0.19142002, 0.23408125, 0.07833673, 0.02030987,
    0.15591235, 0.10328636, -0.12999429, 0.00871858, 0.07671390, -0.01018573, 0.19904755, 0.05945383,
    -0.07049440, -0.15142342, 0.04178391, -0.09484580, -0.16591164, 0.11000394, 0.11521360, -0.18200991,
    -0.14293893, 0.08782524, 0.07663935, 0.15160789, 0.04822474, 0.01357341, 0.11840997, 0.15267405,
    -0.23814297, -0.06928366, 0.46049690, -0.15185158, -0.21251076, 0.17839892, -0.04767643, -0.06071023,
    0.01070516, 0.22768630, 0.20933588, 0.17946821, -0.14261356, -0.00495831, 0.12657799, 0.07984629,
    0.21956125, 0.37261221, -0.23247965, -0.16991404, 0.04084020, 0.28800476, -0.24093007, 0.14046165,
    0.06918646, 0.00167817, 0.22752059, -0.12877798, 0.16141902, 0.01010498, 0.62040538, -0.11144486,
    0.01410362, 0.58683228, 0.48006532, -0.10172727, -0.39143628, 0.37138343, -0.05576265, -0.23409986,
    0.19220556, 0.13302322, -0.34382412, 0.20984361, 0.43214566, 0.17111066, -0.13907214, 0.10101088,
    -0.04805493, -0.15449828, 0.38587740, 0.11915858, 0.31345361, 0.01827378, 0.26837298, 0.12314215,
    -0.12348653, -0.01006233, 0.02750125, 0.34838325, 0.10909168, 0.28985491, -0.07610343, 0.10467903,
    0.04519331, 0.06557582, 0.17971233, 0.03423779, -0.14456007, 0.62708014, -0.12727182, -0.06343819,
    0.29328105, -0.08742141, -0.18401551, -0.24554990, 0.15299980, -0.10621914, -0.76664573, 0.01970593,
    0.25575960, -0.01428301, 0.14803997, 0.04051624, -0.14256513, -0.00742811, -0.19386141, 0.01694663,
    -0.09516552, -0.13736671, -0.60376537, 0.19898985, 0.14334157, -0.04148195, 0.43979535, -0.30485910,
    -0.22865812, 0.92883086, 1.48400283, 0.17433299, -0.69879794, 0.09648856, -0.10562829, -0.14315467,
    0.06469379, -0.16012992, -0.11043648, -0.00924708, -0.15240118, -0.08428843, 0.02395622, -0.14990279,
    -0.13391222, 0.04056057, -0.13160843, -0.14288384, -0.23403069, -0.11176307, 0.39390415, -0.76764625,
    0.25938168, -0.11024420, -1.22206318, 0.09042048, -0.13702367, -0.37746039, 0.10583457, 0.47736073,
    -0.07656019, 0.17817523, -0.08524080, -0.16463305, 0.18952362, -0.07462864, 0.17024601, -0.01080137,
    0.03769742, 0.15764168, 0.04709701, -0.17191468, 0.15525122, 0.11034092, -0.88668340, -0.17198741,
    0.09740800, -0.25430068, -0.24572568, 0.16198054, 0.06722515, 0.14812598, -0.01009984, 0.18245560,
    0.07700572, 0.14592110, -0.00991374, -0.11400049, 0.08056136, 0.04856631, 0.33108941, 0.09203017,
    0.21350779, 0.54651505, 0.92683190, 0.13840345, -0.18292697, 0.08036621, -0.08814262, -0.27241057,
    0.18171726, 0.11358335, -0.09671614, -0.01797956, -0.01853538, -0.08859052, -0.08013615, 0.12904711,
    -0.19888166, 0.10464374, -0.06518636, 0.19666907, -0.19875441, 0.20341310, 0.33845431, 0.09628228,
    0.15110344, 0.09426124, -0.29913568, -0.12248509, 0.05470790, 0.08980215, -0.08076284, -0.47322655,
    -0.01772314, 0.17607994, -0.08497887, -0.17044255, 0.04876079, 0.10033680, -0.05316399, -0.13451225,
    -0.10078668, -0.03938064, 0.03149616, 0.04619336, 0.10629721, 0.05068567, -0.18232736, -0.01355771,
    -0.11405447, 0.18948993, -0.17648934, 0.10413195, 0.14807372, 0.12267478, -0.12896515, -0.15332741,
    -0.16755149, -0.09530294, 0.07565756, 0.05804341, -0.19819364, -0.11961409, 0.22181262, -0.09462170,
    0.05427979, -0.15207018, 0.24311890, 0.11061268, -0.08247674, 0.07829639, -0.01532386, -0.10535569,
    -0.17167549, -0.06056217, 0.23039003, 0.11098018, -0.03340396, -0.06290871, 0.20618872, -0.15636423,
    -0.18419741, -0.12036089, 0.07440278, 0.09652286, 0.00367121, 0.12342303, -0.11070139, -0.15435635,
    -0.09742110, 0.07486296, -0.09153575, -0.08711787, -0.05706717, -0.21586765, -0.00712019, 0.18514366,
    0.02793780, 0.10924105, -0.14656706, 0.12901945, -0.18663579, -0.04426924, -0.19469146, -0.22143017,
    0.10991761, -0.06828507, -0.05264732, -0.20000952, -0.09357749, 0.00059215, 0.01269762, -0.18865201,
    -0.15134194, -0.17158933, 0.13452242, -0.03415479, 0.09668749, -0.11180853, 0.11355470, 0.11806951,
    -0.06256108, -0.08640999, 0.03397525, -0.14815313, -0.05902416, -0.05011517, -0.30466425, 0.08715356,
    0.04355907, -0.30496877, -0.52392954, 0.11096938, -0.10482232, -0.05113265, 0.19791768, -0.13473804,
    -0.19774258, 0.20809168, -0.13636056, -0.04596568, -0.07035070, 0.02010869, -0.23695521, -0.21448220,
    -0.12625617, -0.08304878, 0.14465839, -0.19489995, -0.11086664, 0.11728607, 0.11717690, -0.08606190,
    0.15371387, 0.21811384, 0.16749327, 0.03310824, -0.10855410, -0.04167266, 0.14819713, 0.22796734,
    0.07464214, -0.20175940, 0.41174087, 0.12014449, 0.09436943, 0.02313135, 0.10328897, -0.15503864,
    -0.00443548, 0.16633280, 0.18087688, 0.09388751, -0.10134896, -0.20325302, -0.44113412, 0.09180451,
    0.24790883, 0.04297771, -0.29350570, -0.20255534, 0.04268035, -0.03624782, -0.01860250, -0.07428533,
    -0.06834773, 0.12533461, 0.21604356, 0.05268276, -0.05830318, 0.17456950, 0.42827755, 0.17235850,
    0.07617862, 0.35065633, 0.41381076, 0.16403112, 0.13292696, -0.12555258, 0.19551186, -0.34210482,
    -0.16548949, -0.14232172, 0.24466360, -0.13801509, 0.05800487, -0.21956322, 0.04454590, -0.10246363,
    0.00966248, -0.09396273, -0.20727673, 0.08475599, -0.03055327, 0.07953151, 0.51642752, 0.15030277,
    0.09158695, 0.17616375, 0.11133427, -0.21128273, -0.04645658, -0.30010724, -0.24855030, -0.42349076,
    0.06641350, -0.06025735, -0.10058884, 0.14871484, -0.10198377, -0.15850750, -0.12757379, 0.05959748,
    0.16939588, -0.07313872, -0.19807394, 0.03039452, -0.01478800, 0.13159317, -0.05015676, -0.09969749,
    0.24653473, -0.10747758, 0.27330914, 0.02783288, -0.21305877, -0.18263613, -0.15219428, 0.11495018,
    -0.19105810, 0.18802832, -0.03017774, -0.07213152, 0.18976250, -0.03898561, 0.06155173, 0.15530837,
    -0.04476985, -0.17603989, -0.16711490, -0.19959551, -0.12720051, 0.15176924, 0.07638867, 0.16375475,
    -0.12352717, -0.16347088, 0.11112169, 0.15324277, 0.15573868, -0.09646900, -0.02523534, 0.02618785,
    -0.20414057, -0.18039744, 0.10244758, -0.02374352, 0.21025193, -0.11922668, -0.16208957, -0.03625313,
    -0.12561451, -0.04182187, 0.15809725, 0.00027933, 0.09091368, -0.03189762, 0.09088118, -0.09238411,
    0.09728942, -0.14391187, -0.04024036, -0.07979719, -0.13433871, 0.06532130, -0.09071977, 0.13627599,
    -0.07531840, 0.27720913, 0.19790335, -0.44317600, -0.12510946, -0.15497983, 0.16160794, 0.12194663,
    0.07599220, -0.24160279, 0.07236316, 0.19180442, 0.06759878, -0.11420146, -0.20958142, -0.02792855,
    -0.15654776, -0.15877494, -0.14672488, 0.10446733, -0.07572415, 0.18501668, 0.20224078, -0.09206035,
    0.10132320, -0.06713942, 0.54534072, 0.10537125, 0.29453915, -0.55511934, -0.14697424, -0.16752243,
    -0.07887688, 0.02279582, 0.16680500, -0.09288866, -0.06549510, 0.07155162, 0.42396370, 0.05603274,
    -0.15232797, 0.21651436, 0.15079460, -0.11343652, -0.14598872, 0.41578993, 0.36607262, -0.65401411,
    0.38251388, 0.22614689, -0.15590535, -0.21727014, -0.04252524, -0.38745910, 0.14988869, -0.17881913,
    0.14122151, -0.19816782, 0.20700184, -0.13060908, 0.14723615, -0.13859349, -0.03608372, -0.24346268,
    0.16017614, -0.20389611, 0.03102820, -0.10824043, -0.19714437, -0.19623576, -0.54533362, -0.23343863,
    -0.12606388, 0.09948009, -0.25159842, 0.11142816, -0.17459440, 0.11029832, -0.19880818, -0.07252334,
    0.14892016, 0.11260889, -0.22751918, -0.02434975, -0.05819109, -0.02393183, -0.00896455, -0.19699298,
    0.20747933, 0.05408271, 0.60715437, -0.07133000, -0.18762533, -0.22878124, -0.16103482, -0.10941410,
    0.05651729, -0.19994515, 0.18407071, -0.04305203, -0.11916749, 0.06073451, 0.08885055, 0.08637548,
    -0.08962131, 0.17816880, -0.04922717, 0.21473126, 0.00683866, -0.13164741, 0.37531540, 0.18699208,
    -0.10713763, 0.12609710, 0.02695672, -0.02946775, 0.23381193, 0.03658757, -0.07418354, -0.43800932,
    0.03471948, -0.07063558, 0.03605206, 0.19614686, -0.16155097, 0.08922212, 0.15427256, 0.12644258,
    -0.03013711, 0.07359735, -0.17630008, -0.13230301, 0.14945702, -0.08486947, 0.19061723, 0.10570808,
    -0.13662623, 0.12674160, -0.15879945, 0.11021496, -0.09892482, -0.17967781, 0.06637052, -0.09727613,
    0.06944367, -0.08088184, -0.04229309, 0.17718664, -0.11883727, 0.05123983, -0.18112724, 0.01371443,
    0.20779023, 0.09996399, -0.15165664, 0.03172820, -0.02652527, -0.05476609, -0.05915996, -0.01133230,
    -0.16474758, -0.03554778, -0.14314905, 0.07400177, 0.19068380, 0.10772936, 0.01847375, -0.11285516,
    -0.00083794, 0.19175342, -0.20654562, -0.07161278, 0.10396773, 0.07641774, -0.15155712, -0.19862585,
    -0.18525289, -0.11395027, -0.09100263, 0.05100690, -0.16593170, 0.19240342, 0.19863884, 0.07452436,
    -0.05287567, -0.18010890, -0.18195724, -0.20126741, 0.14069514, 0.06794749, 0.11564030, 0.08780032,
    0.18587056, 0.18588984, -0.05462395, 0.17343383, -0.01363586, 0.06076281, 0.21630827, 0.03676287,
    0.08762773, -0.05268420, 0.01193160, 0.16904590, -0.13121335, -0.03585947, 0.07257286, 0.07541507,
    -0.01035878, -0.18839601, 0.19050451, 0.14929366, -0.12143780, -0.00547351, -0.47956237, -0.11881808,
    0.09104983, -0.09375972, -0.83644027, 0.09318441, 0.12406737, 0.13942507, 0.14488019, -0.07938625,
    0.05291344, 0.18060194, 0.09701214, -0.21249253, 0.03210167, -0.21789154, 0.20116203, 0.10722296,
    0.04342438, 0.01694854, -0.06241390, 0.04871755, -0.08770464, -0.20050547, -0.09982257, -0.12027166,
    0.17350033, 0.09099735, 0.06025209, 0.04961573, -0.02735650, -0.12921585, -0.02861643, -0.03423466,
    -0.19584650, 0.16128927, -0.14919138, 0.17833015, 0.08258520, -0.20161468, 0.17258126, 0.11208944,
    0.14787832, 0.17745334, -0.14965497, 0.05532243, -0.04924801, -0.12644319, -0.20023659, -0.15957086,
    0.09996407, 0.12795192, -0.14975807, -0.21488717, -0.07531432, -0.20593479, -0.11397436, -0.14811204,
    0.17934890, -0.07411117, 0.00710542, 0.10233578, 0.02142672, 0.09309278, 0.25383827, 0.16821922,
    -0.10535152, 0.30356482, 0.16452403, -0.09203318, -0.14093332, 0.05585785, 0.12463652, 0.07939176,
    -0.13707674, 0.14409199, -0.12764187, 0.06383689, -0.20202267, -0.11086284, 0.09420092, -0.05893898,
    -0.21150059, 0.03131332, -0.16016634, 0.10263667, -0.16365585, 0.10359767, -0.38923112, -0.21805584,
    -0.30913961, 0.11802424, -0.00599738, 0.09485882, -0.10387714, -0.15480393, -0.13366373, -0.03509796,
    0.22266565, -0.09219983, 0.07735209, 0.18746020, 0.14400364, -0.20078346, 0.05472957, 0.08856113,
    0.18984510, -0.15662490, 0.08471741, -0.19550213, 0.05119006, -0.17389475, 0.17073236, -0.16505699,
    0.04169140, -0.14410244, -0.02529560, 0.12231959, 0.17634867, 0.04732080, -0.16389602, -0.07930815,
    -0.15734029, 0.16253652, -0.05390437, 0.00960359, 0.02438891, 0.09414482, -0.02465026, -0.18738198,
    -0.10329986, 0.10061200, 0.08594711, 0.01811434, 0.13570078, 0.04527557, 0.07070272, -0.02255441,
    0.03555660, 0.14216797, 0.11625042, -0.02896864, -0.09850464, -0.10136269, -0.15108401, 0.14593773,
    -0.02258720, 0.13416240, 0.14744791, -0.12944759, -0.15478355, -0.08257940, 0.11833851, 0.12904711,
    0.20492198, -0.02156597, -0.00146738, 0.14660960, -0.17412160, 0.19495057, 0.21069261, -0.10206611,
    0.12448342, 0.13396342, -0.15171209, -0.20604366, 0.07111497, -0.20747000, 0.13451603, 0.03797473,
    -0.05214820, -0.13829505, -0.05792870, -0.11673514, -0.17273152, 0.15898605, -0.22884193, 0.00015429,
    0.18823060, 0.01567287, 0.19187525, -0.08041100, -0.09164425, -0.21516234, -0.17440352, -0.11967897,
    -0.11934468, -0.15665969, 0.10577537, -0.08543576, 0.18571155, 0.13416493, -0.11635222, -0.03971301,
    0.09589858, 0.13014118, 0.00429925, -0.03559037, 0.03852329, -0.20672074, -0.14344540, -0.06170300,
    -0.02479205, 0.21183936, 0.15858258, 0.09671234, -0.05539414, -0.17751655, -0.11219094, -0.19783044,
    -0.14156775, -0.09149554, 0.15230669, -0.03191915, -0.19067979, 0.16323008, -0.02594563, -0.13332573,
    0.12613547, -0.09346664, -0.07469060, -0.21437466, 0.02321596, -0.08980501, 0.10005375, 0.21453233,
    -0.18413819, -0.17667715, 0.19393890, 0.14715154, 0.16315193, -0.09521040, 0.05861488, 0.02629285,
    0.32592016, -0.12785392, -0.16152826, 0.17155190, 0.19496794, -0.08827675, 0.07982447, 0.14841856,
    0.06372222, 0.16724533, -0.09859587, 0.06888682, 0.04050811, 0.00918726, 0.07481794, 0.04068949,
    -0.13129178, -0.18422256, 0.08843041, -0.05088337, -0.01622677, 0.12566516, 0.10696738, -0.02863546,
    0.13847268, 0.29160470, -0.03155649, -0.11374015, -0.08918936, -0.13609077, -0.14331722, 0.09650928,
    -0.01438977, 0.17735910, 0.09251910, -0.00401692, 0.19605595, 0.06277721, 0.13021564, 0.14129381,
    -0.04015395, -0.07501309, -0.08601347, -0.04157349, 0.18735027, -0.21807997, -0.55256516, 0.04737721,
    -0.09657271, -0.23739173, -0.17048061, 0.30196080, 0.17491853, -0.07244401, -0.04633851, -0.23300964,
    -0.06391371, 0.07712685, 0.06493615, -0.18710847, 0.18391649, 0.18495740, 0.07011515, -0.15165119,
    0.02759955, -0.10899855, 0.06882410, 0.16309105, 0.03582276, 0.19721474, 0.09369667, 0.03167039,
    -0.05209242, -0.08391447, 0.03987165, 0.05039246, -0.11747906, -0.16196330, -0.11533935, -0.11906847,
    0.06224106, 0.18341586, -0.06419268, -0.18969867, -0.09396793, 0.10520227, -0.17546140, 0.00121449,
    0.06749378, 0.11579297, -0.21461548, -0.08365330, -0.13179795, 0.14070652, 0.18908839, 0.16625457,
    0.08349384, 0.21755664, -0.13726637, -0.13837081, 0.12575491, 0.08055688, 0.00219342, 0.02575867,
    -0.05469038, -0.08181988, 0.04046824, -0.11002079, 0.16971613, -0.05510101, 0.07123908, 0.11911689,
    -0.00439579, 0.03661447, 0.14303710, 0.18167360, 0.07564565, 0.10556574, -0.09994223, 0.19248693,
    -0.18566760, -0.11842689, 0.17228298, -0.00101743, 0.00385125, 0.15646268, 0.04040206, -0.14051019,
    -0.00688779, 0.03505061, 0.14835231, -0.03135546, -0.05163833, -0.08326426, 0.18433027, -0.11587761,
    -0.03931972, 0.19534536, 0.15796465, 0.19747500, 0.15193866, 0.09989179, 0.09048972, -0.08881409,
    -0.17431375, -0.00847097, -0.12785529, 0.14944611, -0.01180243, 0.16417284, 0.10424723, -0.07330847,
    -0.09804740, 0.05307097, -0.14428832, 0.04388477, 0.03294043, 0.05008391, -0.12441507, -0.11189684,
    -0.17827639, -0.18137820, 0.14664380, 0.15360294, -0.03709022, 0.15199983, -0.09234969, -0.17743686,
    0.07475685, -0.10076376, -0.09767519, 0.17606269, -0.08316329, -0.13599683, 0.09226397, -0.02577297,
    -0.11286258, -0.01708492, 0.13308194, 0.06696781, -0.04552327, -0.05766944, -0.04859088, 0.00077613,
    0.17723294, 0.14629771, 0.22183289, 0.24358608, -0.15648067, 0.08129334, 0.14395660, 0.20732202,
    -0.07719726, -0.12852050, 0.10612826, 0.14546311, -0.08293322, 0.08803060, 0.24553387, 0.16777331,
    0.20858866, -0.10921107, 0.07220502, -0.13973819, 0.02223420, -0.23919761, 0.20604421, -0.21457566,
    -0.21176803, -0.02225985, 0.07227258, 0.07842118, 0.00396735, -0.03640479, 0.36348739, 0.13051398,
    -0.05054133, 0.44228736, 0.23707715, 0.12717839, 0.28173122, 0.03324489, 0.02449313, 0.13218495,
    -0.18436141, -0.18278590, -0.01039242, 0.02383775, 0.40128791, -0.17540400, 0.02989363, -0.06772227,
    0.15591286, 0.15572314, 0.33760726, 0.02471562, 0.23015225, 0.19579655, -0.08357071, 0.08048675,
    0.07924590, -0.05402839, 0.03899218, 0.19047146, -0.30903462, -0.17374544, -0.03458903, 0.00480533,
    -0.21343388, -0.16250889, -0.29589441, 0.04645168, -0.10293397, 0.04499291, 0.01274088, -0.11759499,
    0.21880938, 0.15074563, -0.01121168, -0.10347139, 0.16327287, 0.14099722, -0.19067208, 0.07274671,
    -0.09849904, -0.13446765, 0.11771565, 0.03185851, 0.14174952, 0.22430125, -0.17983092, -0.16960865,
    0.13542940, -0.34113345, -0.01437559, -0.17658408, -0.26656774, 0.10635883, -0.24575430, -0.11040269,
    -0.13898839, -0.08527831, -0.28529346, -0.09839997, 0.17976522, -0.23939042, -0.08671188, -0.08071870,
    -0.11993004, 0.05725420, 0.13242207, -0.15802220, -0.33618683, -0.02862898, 0.17545652, -0.16566429,
    0.00923869, 0.02217950, -0.17257121, -0.13530029, -0.19008307, -0.29754660, -0.24112020, 0.13523233,
    0.01495330, 0.14306439, -0.20076732, -0.08004347, 0.22026357, -0.22196473, 0.01843134, -0.09855255,
    0.13782816, -0.03051088, 0.27367222, -0.11454836, -0.13246343, 0.15290551, 0.13234189, 0.02007469,
    -0.07837024, -0.04930142, 0.04737827, 0.44671005, -0.09450845, 0.08621954, 0.28557974, -0.22887576,
    0.31171548, -0.00721542, 0.14973307, 0.01141053, -0.00991048, -0.25969133, 0.06607901, -0.12751439,
    0.01201451, 0.11967113, -0.22524373, -0.13716498, 0.29535168, -0.14849126, 0.32716212, 0.10823227,
    -0.18247318, 0.26308861, 0.49599651, 0.02619289, -0.01176103, 0.28126526, -0.13070931, 0.08774459,
    -0.06981297, -0.19441235, 0.01993159, -0.06077947, 0.09072670, -0.19285510, 0.07047709, 0.12472173,
    -0.13903001, 0.08893368, 0.34718797, 0.08961140, 0.11698894, 0.16270491, 0.14616643, -0.06372811,
    0.33408287, -0.07170463, -0.06087473, 0.35186470, 0.11059002, 0.32650909, 0.19212078, 0.06960516,
    -0.15250742, -0.05828157, -0.02414779, 0.15347800, -0.16429839, -0.14461851, -0.03823152, 0.06966312,
    0.12818269, -0.06269948, -0.14130570, 0.05697336, -0.14532547, 0.17973940, -0.17972709, -0.10736050,
    -0.09434501, -0.03609679, 0.06859343, -0.03667229, 0.00544794, -0.12076274, 0.12017377, 0.16483425,
    0.01874317, -0.04882262, 0.18429543, 0.09185083, 0.04659467, 0.15938066, 0.11110249, 0.14849418,
    0.20333134, 0.02962242, 0.00480260, -0.18348941, 0.11320572, 0.15219605, 0.10000311, -0.05805347,
    0.02242847, -0.11857300, -0.18237777, 0.08575696, -0.15271996, 0.20066501, -0.09960876, 0.04273786,
    -0.10396574, -0.12852062, 0.03102267, 0.10325846, 0.08103071, -0.01304608, 0.16187178, -0.20343283,
    -0.21025102, 0.12221255, 0.10958454, -0.07017295, 0.19922589, 0.19984369, -0.10802720, 0.19449542,
    -0.02275675, 0.02576618, 0.37477762, 0.17261806, -0.05823815, -0.01608221, -0.01700617, -0.08396021,
    0.11879470, 0.16357102, -0.18969432, 0.26447389, -0.19386944, 0.19708993, 0.39510325, 0.00965982,
    0.04865848, 0.00553822, 0.12427893, -0.15436824, 0.09857966, -0.03949044, -0.00298332, -0.09368186,
    -0.08074532, 0.43350363, -0.18881384, 0.15163207, 0.19163029, -0.16748130, 0.27348739, 0.03699956,
    0.00041491, 0.37521741, 0.22527282, -0.03982639, 0.00572913, 0.25528550, -0.07077783, 0.07433239,
    -0.06547077, -0.03517845, -0.18669394, -0.18524255, 0.06252147, 0.05158009, -0.09029257, -0.08486106,
    -0.19020650, -0.02589101, -0.09726293, 0.10853110, -0.06647848, 0.18564744, -0.02363853, -0.02897357,
    0.29255712, -0.31137398, -0.08769670, 0.15291940, 0.21251824, -0.09071947, 0.20877011, -0.09081472,
    -0.11061406, -0.19098857, -0.14684157, 0.05079785, -0.02334321, 0.06646175, 0.21558833, 0.24523418,
    0.10150047, 0.01980913, 0.05007647, -0.08597207, -0.11191648, 0.16032781, -0.06430963, -0.13591833,
    -0.05404214, 0.17270598, -0.13374917, -0.02434015, -0.12821850, -0.01578811, -0.05987364, -0.04815346,
    0.13156728, -0.21429266, -0.04021374, 0.01570594, -0.16556504, 0.18729435, -0.16682883, -0.16376399,
    0.02836465, -0.55876642, -0.48913333, 0.14989811, 0.21894047, 0.00310459, 0.16971655, 0.02639560,
    -0.05948873, 0.20215270, 0.03783002, -0.09040162, -0.16851179, 0.17522438, 0.05869104, -0.00887217,
    -0.09000829, 0.08437275, -0.16812818, -0.13728072, -0.17227913, -0.15972376, -0.00235457, 0.11224834,
    -0.02548638, -0.15077889, 0.13746658, 0.07957159, -0.01432579, 0.09051539, -0.04048628, 0.15131898,
    -0.03443687, 0.20644747, -0.04272278, -0.01486345, -0.18638116, -0.11604621, -0.11504664, 0.10440142,
    0.07618969, -0.06258636, -0.26976606, 0.17315765, 0.15395068, -0.03837171, -0.04736472, 0.18552311,
    -0.07509291, 0.07417405, 0.03329217, -0.15751238, -0.00707685, -0.04329870, 0.13327873, -0.07367969,
    -0.03110655, 0.08049667, 0.25637847, -0.21088843, -0.13565229, -0.09989092, -0.17764601, 0.05425686,
    -0.04141632, -0.02739986, -0.26859528, -0.03039217, -0.10535002, 0.22415984, -0.21633507, -0.04502378,
    -0.21363519, 0.20347883, 0.02599580, 0.01112944, 0.04925240, -0.10159531, 0.12493879, -0.03235859,
    0.14801241, 0.10473478, 0.11999479, 0.11827429, 0.24006031, -0.26918888, 0.00316496, 0.06696345,
    -0.10207641, 0.18702219, 0.14274827, 0.18643986, 0.01364440, 0.09781557, -0.00991115, -0.03759578,
    0.12327763, 0.20253919, 0.07310543, -0.12283476, -0.16906139, 0.01669613, -0.22757448, -0.11782464,
    0.21083663, -0.68872780, 0.17692898, -0.38508242, 0.02203569, 0.11056394, -0.94103318, 0.09044752,
    0.06442586, -0.30273032, 0.11122834, 0.17505796, -0.02667871, -0.16456166, 0.00215813, -0.03331350,
    0.02289913, 0.24596559, -0.41261423, -0.04414681, -0.01974011, -0.10539454, 0.84938550, -0.36346337,
    -0.09531103, 1.36068261, 1.42113221, 0.12015229, -0.67444026, -0.26149315, -0.12371935, -0.25537115,
    -0.09683610, -0.23348890, 0.23788659, -0.11672160, 0.06229180, -0.04996303, 0.15667833, -0.14491376,
    -0.17174481, 0.31666294, -0.01192789, 0.02573219, -0.12653123, -0.00828865, 0.06152294, -0.83847219,
    0.14800940, 0.20392613, -0.64746404, 0.28204677, 0.01358432, -0.45931306, 0.13584767, 0.20764402,
    0.00465554, 0.10491072, 0.18436800, -0.11782565, 0.19767810, 0.19040579, -0.05642984, 0.06647297,
    0.12535793, -0.04139964, -0.21141712, 0.03847455, 0.04980440, -0.01772019, 0.07099596, 0.16525312,
    -0.14093664, 0.09354922, 0.16297694, -0.18547541, -0.02491369, -0.23235458, 0.19936146, 0.00126037,
    0.10569526, 0.09223912, 0.11456751, -0.05801247, 0.14262721, 0.04148776, 0.16716221, 0.10858118,
    -0.18810435, -0.17199072, 0.07508679, 0.01179623, -0.08953663, -0.29253146, -0.11846607, 0.14360471,
    -0.04154323, 0.09601929, 0.09116945, -0.00032626, 0.01102841, -0.17551464, 0.05939636, -0.07536410,
    0.08118244, -0.19971342, 0.00717147, -0.01390980, 0.10353325, -0.01866050, 0.26446396, -0.19095875,
    0.12147209, 0.28089425, -0.08501010, -0.04329110, -0.18080822, 0.08129711, 0.10031524, -0.03478162,
    0.11684228, -0.02880606, -0.10965030, 0.16406791, 0.07480501, 0.14744411, 0.20675002, 0.16525669,
    -0.18992321, 0.17585756, 0.16644807, 0.18627183, -0.09498613, -0.04326959, -0.18831353, 0.12956269,
    -0.16356799, 0.12988861, 0.18850400, -0.09143442, -0.08774108, 0.12661023, -0.13854554, -0.20501773,
    -0.07429026, -0.10316218, -0.15985098, -0.17251033, 0.02291328, 0.15424804, 0.07997318, 0.07800432,
    0.07148822, 0.05045362, -0.00339076, -0.20968767, -0.07489043, 0.05995660, 0.16505916, -0.15412214,
    -0.11949634, 0.17699800, 0.15565021, -0.09526213, 0.05121858, 0.14599673, -0.06029646, -0.06389932,
    0.18662594, 0.07669784, 0.15647908, 0.08437265, 0.05324523, -0.07794753, -0.17124024, -0.08921614,
    -0.07434173, -0.09044421, -0.13333873, -0.19275689, 0.04460336, 0.02426171, 0.18233542, -0.07499579,
    -0.16341422, -0.16667220, -0.07903446, 0.12708056, 0.17856582, -0.13135517, -0.18856524, -0.01255272,
    0.27807784, 0.07332265, 0.02632097, -0.09144264, -0.11285708, 0.10828026, -0.12946367, 0.03766243,
    0.17940411, 0.11977065, 0.16154324, 0.04835927, -0.05750464, -0.02651628, 0.19434805, 0.04532840,
    0.10585607, -0.21161857, -0.11657307, -0.21156593, -0.13881840, 0.08573202, -0.02094909, 0.01607491,
    -0.05866210, -0.06168978, -0.11706861, -0.04796044, -0.16203271, 0.17878717, -0.17329788, 0.11830574,
    0.10055040, -0.13986251, -0.10738017, 0.06339044, -0.07754775, -0.22090068, 0.13856930, -0.15057488,
    -0.20681594, 0.12031422, 0.05434849, -0.15104818, 0.24893247, -0.20002164, -0.21594138, -0.14896049,
    -0.21982162, 0.08152916, 0.30144414, 0.29323173, 0.22364318, 0.09754413, 0.09840932, -0.17891966,
    -0.11763656, -0.06403674, 0.09585717, 0.12849370, -0.07400233, -0.20696065, -0.08433399, 0.12186261,
    0.10914176, -0.20903295, 0.20428474, 0.22025006, 0.02221718, -0.04302135, -0.00673694, 0.15332314,
    -0.17490819, 0.05649436, 0.11207932, -0.02461216, 0.00246842, -0.01172234, 0.18737741, -0.18658350,
    -0.18568517, -0.02040726, -0.09329693, 0.14330892, 0.06336858, -0.02216323, 0.01995136, -0.11558061,
    0.07407500, -0.10121491, -0.05026602, -0.06270754, 0.13582765, -0.22333834, 0.11566006, -0.04100053,
    0.05591355, -0.01088900, -0.05129245, 0.18895641, -0.14046615, -0.01143740, -0.20441127, 0.13630162,
    -0.07822116, -0.14208768, -0.00451839, -0.08488803, -0.17532428, -0.00512971, -0.10748670, -0.09951001,
    -0.10989258, 0.17368449, -0.19178393, -0.16617259, 0.02381500, -0.02212697, 0.09670175, -0.02854206,
    -0.13497172, -0.13694161, 0.20858203, -0.20742907, -0.04575215, -0.19545425, -0.10756347, 0.01829383,
    -0.11874115, 0.08457374, -0.29048571, 0.07785805, -0.09278018, -0.03678078, 0.14861298, 0.08325709,
    0.04058672, 0.12864478, 0.19704884, -0.08078367, -0.10972638, 0.01297007, 0.03638837, 0.03417808,
    -0.10233666, 0.11305124, -0.12738518, -0.13700612, 0.03927470, 0.04670211, 0.11283261, -0.01477772,
    -0.12284838, 0.03118635, -0.15980865, -0.17809877, 0.02055064, 0.23143999, 0.01283190, 0.17429037,
    0.20238118, -0.03603520, 0.11488421, 0.06668696, 0.19379836, -0.15327512, 0.00722808, -0.07884236,
    -0.02092077, -0.11193755, 0.21544378, -0.26062161, -0.17937739, 0.11222762, 0.04542790, 0.15362613,
    0.14287502, 0.13296410, 0.22381009, -0.13465305, -0.25314972, 0.18126845, 0.19519018, 0.20691901,
    0.07756906, -0.06840578, 0.01018111, -0.14589874, 0.14107622, 0.00059387, -0.09094735, 0.15272841,
    -0.22455947, 0.08231837, 0.03541563, 0.33363563, 0.07580368, 0.15603672, 0.05927384, 0.01588545,
    0.02631135, 0.14539197, -0.02044699, -0.01996182, -0.23381759, -0.14161457, 0.01977600, -0.14743309,
    0.05576667, 0.07819071, -0.23873167, -0.10695161, -0.10921559, 0.01543114, 0.05460527, 0.15160914,
    0.05694970, 0.04262578, 0.17352493, -0.14476104, -0.12421369, 0.18457474, -0.18564776, -0.12653533,
    -0.08540045, -0.21383399, -0.11670543, 0.04088793, 0.16192651, -0.09100249, -0.07992859, 0.15935709,
    -0.18568653, -0.04152812, 0.00930019, -0.00180110, 0.07173246, -0.14631455, 0.08939999, 0.18864594,
    0.22945078, -0.06699187, 0.05430787, 0.06982394, 0.15028189, 0.00591254, 0.23770083, 0.13553983,
    0.04966791, 0.13985044, 0.33401847, 0.13943107, -0.10312079, -0.14509730, 0.00745661, -0.15744337,
    0.03565294, 0.12481923, -0.16877156, 0.24441490, 0.00798228, 0.19421603, 0.02131250, 0.19110988,
    -0.14521883, 0.12926634, -0.20055404, 0.11615617, 0.09615818, -0.15893935, -0.05687190, -0.18880245,
    -0.18233052, 0.25266999, -0.16903415, 0.10155219, 0.05969248, -0.19280554, 0.33276576, -0.11005559,
    -0.05502465, 0.26078579, 0.01123973, -0.02191205, 0.16757421, 0.31763431, -0.02294414, 0.01852677,
    -0.04200868, 0.07777461, 0.00174021, -0.05350754, 0.34123316, 0.08411789, -0.17150372, 0.13402417,
    0.13947104, -0.13888434, 0.04262446, 0.11398074, 0.16260035, -0.10542278, 0.08856238, 0.20811990,
    0.16324563, 0.08366773, -0.12603867, 0.01193936, -0.20204420, -0.13490145, 0.20391800, -0.08262143,
    0.09288348, -0.02651692, 0.15039288, -0.21865517, -0.03652322, 0.19015077, 0.14744769, -0.17446557,
    -0.12311602, -0.04193892, -0.02548776, 0.01255677, -0.03191957, 0.10327277, -0.19268668, 0.18514736,
    0.10305356, -0.22933820, -0.01001727, 0.10623608, -0.15918306, -0.14254573, -0.15874545, -0.06062225,
    0.18507889, 0.06452807, -0.03186728, -0.11687997, -0.19767441, 0.10720193, -0.01895984, 0.00930636,
    0.01676173, -0.09460989, 0.47495317, 0.10243136, 0.24376398, -0.11976659, 0.05277772, -0.14614856,
    -0.10343019, 0.13373573, -0.01161220, 0.21471533, 0.10614739, 0.00834518, 0.16396071, 0.06854464,
    -0.19166996, -0.13882528, 0.11068586, 0.08878800, -0.16958448, 0.05415932, 0.28405130, 0.15918095,
    0.10890325, -0.06631684, -0.14515714, 0.10393336, 0.18189575, -0.23440507, -0.09802072, -0.24178167,
    0.12844931, -0.17859508, 0.11795197, -0.10082690, -0.04894759, 0.15735862, -0.20318560, -0.11407468,
    -0.05282168, -0.18620627, -0.04260632, -0.22082694, -0.13804588, 0.01015653, -0.51763994, -0.22123000,
    0.05782456, 0.05512566, -0.04182438, -0.11330058, -0.09554690, 0.09728523, 0.08805019, 0.00437791,
    0.03288761, 0.12699941, -0.01330049, -0.19405745, 0.13166083, 0.02389550, 0.26950124, -0.24028768,
    0.04850144, 0.62418193, 1.03248262, -0.10532330, -0.25930870, -0.15240090, -0.04212034, -0.11602838,
    0.07548206, -0.16031323, 0.10341831, 0.15563969, 0.02841964, 0.12810470, -0.02634967, -0.14943713,
    -0.19844291, 0.06480201, -0.08783404, 0.04398189, 0.02860350, 0.21300666, 0.46495110, -0.00108996,
    0.16385481, -0.01292010, 0.05209240, -0.13682655, 0.07240055, 0.13873976, -0.27993882, -0.19771019,
    -0.18885247, -0.19509086, 0.65751445, 0.09237490, -0.00213197, 0.02941305, 0.41377234, 0.10041165,
    -0.01846352, 0.05208119, -0.00013976, 0.00820645, -0.01099394, 0.32230753, 0.19812362, -0.01718189,
    0.06905574, 0.01114354, -0.36236885, -0.05536641, 0.05161025, 0.12084290, 0.05153081, -0.08365640,
    0.15959446, 0.49395049, 0.29361102, -0.01064533, 0.39982572, 0.08038516, 0.40455699, 0.06652788,
    -0.09166259, 0.50619936, 0.50172967, -0.17563674, 0.37706870, 0.18303606, 0.19251202, 0.26863861,
    -0.04685840, -0.07190431, 0.03404467, -0.04278557, 0.86588413, 0.03378384, 0.09889464, -0.21320397,
    0.03306650, 0.31001809, 0.33608320, -0.14190663, 0.09738707, 0.38189179, 0.30419323, 0.21729299,
    0.10149711, -0.44745588, 0.01796461, 0.19608049, -0.19786152, -0.12529454, -0.32117593, 0.58509952,
    0.16803868, 0.13465317, -0.26434609, -0.02815557, 0.12649836, -0.21761335, 0.06056057, 0.08946843,
    0.10139504, -0.20538421, 0.13766794, -0.09067043, -0.16590869, -0.02692660, 0.06660434, -0.06844008,
    -0.19449936, 0.14886893, 0.21548375, -0.17557369, -0.01316959, -0.28106001, -0.00211891, 0.01448920,
    0.09604465, -0.20704734, 0.02135582, -0.17553493, 0.02396040, 0.11305766, -0.08303560, 0.12103493,
    0.02351988, -0.38684475, -1.22258353, -0.17100748, 0.04543545, -0.11499567, -0.13065991, -0.15696025,
    -0.03627664, 0.09945442, 0.01245065, -0.01895950, 0.09233456, 0.08417620, 0.22890836, 0.07562754,
    0.02413262, 0.09569002, -0.03025407, 0.03552719, -0.23934411, 0.14482974, 0.00792399, 0.16840634,
    0.06189346, 0.20929833, -0.06228765, 0.13472995, 0.06877628, -0.14985824, -0.08822894, 0.03161309,
    -0.24235295, 0.02351265, 0.35318065, -0.10691341, -0.09319768, 0.05980922, -0.02344484, 0.00936001,
    0.17295218, -0.08709829, -0.10979477, 0.16178998, -0.18474974, 0.03748455, 0.27550280, 0.03930007,
    0.24372797, -0.08568996, -0.17237155, -0.02474123, 0.15933385, 0.10810060, -0.06921186, -0.13047279,
    -0.12404080, 0.16882905, 0.04563865, 0.14790526, 0.17722324, 0.12202406, -0.01797974, 0.14635277,
    0.18180220, 0.40342844, 0.29430398, -0.15655243, -0.04930162, 0.15261786, -0.16446698, 0.19475016,
    0.14474852, 0.17084111, -0.20027737, -0.20285787, 0.03413405, 0.09088475, 0.10527701, 0.18967129,
    0.11688767, 0.05301090, 0.19034970, 0.12103458, -0.04309440, 0.22582333, 0.21502873, 0.04739752,
    0.10790130, -0.05430166, 0.27601743, 0.01482625, -0.08503383, -0.01352144, -0.17740586, -0.14443806,
    -0.08617177, 0.14687674, -0.15897566, 0.06965196, -0.10359785, -0.06088965, 0.12369582, 0.19554697,
    0.14359418, 0.19512236, 0.14785068, 0.12261450, -0.18544835, -0.15280280, -0.12380270, 0.15020785,
    0.23664719, 0.09736665, -0.17522462, -0.00849426, -0.02278227, 0.12710145, -0.10072804, -0.10871847,
    -0.09691621, -0.06892326, -0.03874325, -0.03328887, -0.05330621, 0.10758746, -0.14703704, -0.07076619,
    0.08158718, 0.02540660, -0.32072264, 0.18111765, -0.02537304, -0.21815351, -0.21501052, -0.03284126,
